{"sizes": [784, 30, 20, 10], "weights": [[[-0.006718529671896684, -0.014128748664274417, 0.00137781334088117, 0.002917796926183782, -0.00754686149103982, 0.0030164238313164014, -0.016608412453410038, 0.0009221059106473569, 0.005645710419215135, -0.0032988190095195494, 0.0013581671657151048, 0.008080265429687135, 0.0017625504352390383, 0.013192763791887928, 0.004801179501128256, 0.0016615771202789483, 0.002453164867050832, -0.0055152845692831125, -0.0017277549563104358, 0.003812409182482885, 0.007046547895038453, 2.856579794234746e-05, -0.009544514223915695, 0.0031792305016575205, 0.0065554740216406445, -0.00811280955374115, -0.006905890472629633, 0.01869161017417433, 0.006875467932389761, 0.016056716365439136, -0.015613877201542357, 0.006515119005716045, -0.005787637986108659, -0.012154703521869831, -0.0043603979579122775, -0.0044586945993354945, 0.006959556599634243, -0.018148944073026564, -0.01159747760901695, 0.013876586728112488, -0.00424225062981379, -0.00824329309514169, -0.020669908005968577, -0.0031390317706840583, 0.0649824631081392, 0.022914508752052403, -0.005302417344458052, -0.0021454691366775075, -0.009447349758565638, -0.003560115045477232, -0.004178070051184808, 0.003713656132207381, 0.00821444249284315, 0.0041546749635774155, -0.003184479655321754, -0.011084722336371545, 0.0007475584660225224, -0.002847346935019631, -0.011125288138364067, 0.005108153766093727, -0.010654005583527523, 0.005862110285794866, -0.010171652366410575, -0.0035959814766454734, -0.0038662454344448676, -0.020272329275197988, -0.011539698376570146, -0.045446122368793564, -0.004122711239096063, -0.04884985764602105, -0.13790567507848916, -0.1604166438690853, -0.025386191423482113, 0.011380293111735731, 0.056475519699554534, 0.008500635600147601, -0.024983736427471866, -0.03372609438180348, -0.006729753895632522, -0.006863091221052686, -0.0005053996017189806, -0.00040487028181721013, 0.007176826016071626, -0.010150494002222933, -0.004178099285305814, 0.004059364114886695, -0.008943405485501812, 0.009037929742410716, 0.0055524736588003065, 0.0024066625349360234, -0.006222956021705065, -0.0035811191508733275, 0.036340624826519764, -0.04734509317969975, -0.008234068070230131, 0.05220881325576852, 0.04631177001397395, -0.15033327228344717, -0.2960757784841206, -0.17970605827626573, -0.09042497528346703, 0.0742789118871291, 0.006309821141423658, -0.08656645334532234, 0.06344658556622934, -0.08798005855469081, -0.04340655548353951, 0.01978162331764331, 0.039863729194580845, -0.005445357190373577, -0.0007906082430755805, 0.009786151163644247, -0.01486012902579124, -0.0012215315439140916, 0.002797621511518512, -0.02018564853510126, -0.01280960882443398, 0.012917800166954896, -0.015382461097493468, -0.004600424313687499, -0.06471511763444908, -0.030744279934499175, 0.12095233870678787, 0.16177218805058463, 0.07231100724638338, 0.1539212269714949, 0.23209869581365244, 0.2246197816545856, 0.10732910843620308, 0.12493810910597483, 0.14273984383899851, 0.09520511850457761, 0.021045378963031602, 0.12263670926710099, 0.03284268695364039, -0.0011604519231317677, 0.04164634312100835, 0.011379575526529986, 0.014568941982583312, -0.014573621137063284, -0.006480656362828442, 0.0021642561277489675, -0.007572109682884881, 0.010109479427944027, -0.019199376577501953, -0.028353501123163028, 0.03335018171876643, 0.064815108823689, -0.2223957623667162, -0.10383510826298513, 0.10557435683563496, 0.37902139549135805, 0.15293507992840663, 0.07668633006955645, 0.10096850703402942, -0.1896614036783861, 0.2235420028338976, 0.2943570677763954, 0.2568853475989942, 0.3459775609742247, 0.25828637027222945, 0.2749155420139657, 0.2528536313297393, 0.089809064995349, 0.086275880493545, 0.052148191958113224, 0.04158389378859173, -0.006614765206430942, 0.0023527167999042, -0.003050341681281896, -0.007925410945210489, 0.016844167064039666, 0.09299047091975746, 0.02894493637293163, 0.03859642285176352, 0.19145330847044362, 0.1401566224955622, 0.28454616529924925, 0.3178524135081307, 0.09420641515930794, -0.03749649076737811, 0.09385584858441418, -0.07608042289882108, -0.13542667068419728, 0.13909753493522764, 0.16448477791511606, -0.007919518144418259, 0.13068204909669767, 0.1448928314921714, 0.1288292632975856, 0.34334806059083484, 0.29858542189313136, 0.3148183186109805, 0.17748969945826706, 0.06914602254177502, -0.001762898721659132, -0.009794761252208496, 0.01791092745050076, 0.001601038325048615, 0.09184785267192053, -0.009313777055097252, -0.025789612207941903, -0.1813646082849771, -0.004666785782573231, 0.18373302296042168, 0.11265181936034432, 0.23762120414968477, 0.08645205910498613, -0.09532474492346739, 0.0285918359276975, 0.06063234031478477, 0.025847842034791395, 0.10780730024563166, 0.17379284961773, 0.2246877896510431, 0.03178845013843609, -0.014185159331600836, 0.042701005378386794, 0.0665288429779978, 0.11745508131290919, 0.2167444409877282, 0.13463781210560194, 0.03466514265768448, 0.008359248366644282, 0.0008738779538030708, -0.004342868416682824, -0.016034182670999392, 0.007870679608709356, -0.0807120697510591, -0.015506799278333854, -0.17196018069088184, 0.24841916110769785, 0.1551730165125019, 0.1259939369765793, 0.10627567438077178, 0.012124824825864463, 0.30854472617440853, 0.1311271128272565, 0.02653561318929306, 0.24085255830219718, 0.4380315093085857, 0.4003666506814717, -0.10759279257849896, 0.11144381506185264, -0.009320978055948668, -0.03343668396311714, 0.18442133632362384, -0.01839409522813126, -0.025321100127020085, 0.11695109917398808, 0.07650714170071646, 0.05776298826505613, 0.002374379766797497, -0.009839699577319321, -0.030269335991989884, -0.04073726378321727, -0.011064071744264626, -0.010656226227579065, -0.1193002325964159, 0.43263821670078617, 0.29470123283093724, 0.1760545431602413, -0.06361327282770259, -0.13726728972325244, -0.1763814446429527, -0.0123085337731899, 0.2910602684571927, 0.04946020472661926, 0.32767394517680204, 0.06339055305777062, 0.11054717385099715, 0.15360294471814012, 0.06306525862408738, -0.1818889755481298, -0.06005188360701884, 0.06054655207241677, 0.13448614440674972, 0.19761042279912508, 0.06142742609681778, -0.0012779432433153058, -0.005920104150652479, -0.014568261757612125, 0.025153836047418367, 0.05797246304088322, 0.13828350430952002, -0.09699293578755913, -0.1886409023947531, -0.15381344566519942, 0.24654397036307382, -0.061027078428705514, 0.4008411342348034, -0.006879915217764791, -0.020490673254890557, 0.1505913346094191, 0.2794610012829936, 0.26799858808914606, 0.1673594524402678, -0.15791707795680135, 0.15706239310859726, -0.14347714111314747, 0.2274275360171503, 0.14248076795431494, 0.15704900249384873, 0.08676074131346467, 0.2777968008345273, 0.1548382751386853, 0.06693065800922494, -0.00590028211283768, 0.003112450735306823, -0.0016196121316476477, -0.014927858818789594, 0.002534275245556692, 0.014476110114286863, -0.0007687357030359127, -0.3504780287351852, -0.3275517720180662, 0.11176421543733553, -0.012953380862155512, 0.04233902193462698, -0.2922302356644749, -0.12506884829163878, 0.1708765476461518, 0.18970421390178724, -0.054111454997070825, -0.09516583419313225, -0.34718188710150366, 0.06406705154722726, -0.09307675088770519, -0.28807500589918633, 0.02583734250265851, 0.21848070521074528, 0.36605203911736994, 0.45187760032661234, 0.26436566366542974, 0.12161730163756679, -0.00039404392076613733, 0.006450938122831413, -0.012492163636536229, -0.021533772848330444, -0.051401927115867246, -0.24538054020424138, -0.19429332448668618, 0.002837820173421862, 0.16714502181859456, -0.17894413382205132, -0.04920007700870975, 0.06098941432464865, -0.4327351597884492, 0.07602834501503615, 0.34001531545653696, 0.34524650166306164, -0.09650827931181484, -0.01533163525573266, -0.1502272590196801, -0.33490877179756423, -0.2616385203725849, -0.007604011503917368, -0.010589667351222984, 0.024369130387643, 0.15510632810128064, 0.4049570839394619, 0.27592983032629814, 0.0672413138523872, -0.015197476761122077, -0.0022431571926073085, 0.00884593152873351, -0.014192305460640025, 0.040292218712195106, -0.34807026964882926, -0.15767840136191455, 0.07635755248798595, -0.06975980608354473, -0.07666780064804261, -0.08946535226216866, -0.16400157105295374, -0.03436168100261231, -0.0020924726393135675, 0.4389038044559983, 0.007949291691236779, -0.11511060064700118, -0.03851168554979242, -0.2758405929723605, -0.09674244686437325, -0.08980824866050402, -0.1633630304631549, -0.45405669626913964, -0.15230488519621416, 0.05638388898417147, 0.24027275220479777, 0.1923475756105655, 0.07429444750281931, 0.010169808175625935, 0.022975355764415187, 0.011826902544843556, -0.005166550099957096, 0.04858473076661887, -0.2443133318659712, -0.2078106609287994, -0.14822177680120965, -0.3159107440573467, -0.3591259900919819, -0.09687471055317902, -0.022583410776811308, 0.07315584697412292, 0.30639533719452944, 0.2357105108541113, -0.19211546452692063, -0.13939162897255655, -0.4280210973784034, -0.1334208121300779, -0.28700632157537304, -0.06642641006729334, -0.5759336045950955, -0.406197442621378, -0.43847057578443416, 0.07448597906671106, 0.3094231868361415, 0.05720027690132142, 0.04615045544177253, -0.0038608403862799893, 0.006405215929902746, -0.002596605478625767, 0.025757067199127133, -0.04267774417683738, 0.035240911365906104, 0.01967832296925219, -0.2428165952047759, -0.14693072824967546, -0.2611828937048517, 0.017414599705968696, -0.20995532437675643, -0.14134723277484648, 0.5893755630613141, 0.5794409125320878, -0.01598313372191989, -0.5451949283981725, -0.3281571886504883, -0.4561900903039753, -0.11366978769804711, -0.2431205320393639, -0.48717049115259875, -0.16853586795273665, -0.23307610131533207, 0.20474314259496362, 0.3673060584485091, 0.09150527501416547, 0.012857181505122873, 0.0033548210287780906, 0.0006341553509755879, 0.013369882548789545, 0.05038438199720279, 0.05565641085627321, 0.009990723834631848, -0.14633996336318922, -0.4290465234104234, -0.12590872718715979, -0.006544215542141374, 0.37446363069602756, -0.08303976015246264, -0.1313956819303495, 0.720492891285398, 0.511841799653262, -0.2562983563729633, -0.6487003077886929, -0.4670505533694348, -0.2203454006084781, -0.16835965946851242, -0.1524480221559787, -0.25612083779698, -0.08267571452387451, 0.19156882344282977, 0.3414838608651871, 0.26628132407536304, 0.06800149661832762, 0.04448794412594854, 0.00247758453425955, -0.003576849131268861, 0.009713087244745105, 0.04017233560030978, 0.2169009187919752, 0.15505913226487889, 0.06792519662888179, -0.1241536021515716, 0.17981732247477333, -0.037362133500592115, 0.10039066410869607, -0.04012202828704616, 0.4488542641398146, 1.0334209156167613, 0.15153105162558667, -0.5734247553255298, -0.8053032073746488, -0.29818733016131516, 0.09411293146638658, 0.11883390267310372, 0.4414346025221091, 0.327483494987354, 0.22993858831362202, 0.32595907134738944, 0.29456259940072793, 0.15699986889791917, 0.025190423217045767, 0.012468759400986072, 0.013245763329492384, 0.013947121824283551, -0.0061517510047155, 0.020244908852426385, 0.25834072867705193, 0.26406020587349, 0.15075043182358397, 0.12870348865652334, 0.17044983470658706, 0.031660535827074864, 0.4225552098714299, 0.4516218133667085, 0.6745072384822142, 0.8064705280383463, 0.06546509390468548, -0.6452147755173122, 0.028877969857754607, 0.1852633325441443, -0.17715361343442515, 0.07501940825909421, -0.061098113570500164, 0.09580740737242352, 0.14184580547593223, 0.38209276250393864, 0.37795315231016163, 0.14256115090833635, 0.038831641200814504, 0.01794879755988625, -0.0003652277622543717, 0.0030743044892797052, -0.005352675119791745, 0.006059434631133475, 0.2217841472168112, 0.03350862407933899, 0.15084859528725497, 0.02796309123085987, -0.011985694850175692, 0.09797459375800727, 0.2189935120602378, 0.29907444802629757, 0.11975576727698439, 0.25862190494035014, 0.03240850362290751, -0.4628436527277898, -0.4658756337919237, -0.12529940780809953, 0.07300019592715357, 0.25680116252003116, -0.29468510855843844, 0.11811792004377669, 0.16004145702068584, 0.3947280385857891, 0.21927007234350157, 0.004244254335378991, 0.014404446409300031, 0.006975516318796795, -0.0003649862061081363, -0.0036535916850279865, 0.003222187980494138, 0.003901061107661438, 0.23185942150856995, 0.16173814789012228, 0.08497112406276103, 0.20084601773460753, 0.33310247019561223, 0.4292845674759203, 0.5888041328606538, 0.49005331303137495, 0.3896605621664099, 0.0921351107507952, 0.014889741444915927, -0.4596504210557419, -0.30570717901772854, -0.3773089560300597, -0.3507237916425495, 0.05039708902391883, 0.04715512448339247, 0.3206173227414756, 0.17047993107524673, 0.2678402744577896, 0.20340144599264492, -0.16619602788316817, -0.10026697203166762, -0.00842360753141648, -0.009144439972383319, -5.693019499938711e-05, 0.011054176719814311, 0.043358167299573785, 0.1303180139693864, 0.15754662045176068, 0.14189069425466438, 0.23457730853794403, 0.5994218873410924, 0.35495272630663594, 0.08491073826792632, 0.23360905018272846, -0.009485503895527162, -0.19360851278756278, -0.05068520937905234, -0.2499624867782901, -0.1574519703028956, -0.3229942697476111, -0.27306502903186647, -0.08177319911679652, 0.18968663302671712, -0.029752071488485403, -0.000906757601982632, 0.17472079297221182, 0.09274864968349701, -0.18965920953590892, -0.14172216327346523, 0.02194114686184081, 0.0050392543155264695, -0.007130703245121722, -0.006144971053148961, 0.013334109766448358, 0.016437666675781427, 0.0590746967909075, 0.2816784497342002, 0.29134794144849563, 0.322664424824968, -0.08597876927100742, -0.16479651131736597, -0.02775938896660894, 0.19657175135286178, 0.36568497725740284, 0.3915956265962039, -0.15070890539368706, -0.09391844007236222, -0.09664018358012319, -0.0807194406839304, -0.035509430415817236, 0.07366505183920524, -0.11209809822021505, 0.2465374199113399, 0.11558732966944482, -0.05557180706894686, -0.1224867329663271, -0.10177338891666421, -0.008721645356006653, -0.006713132435901905, 0.0021734198719806233, -0.010543700049218216, 0.06703292745595696, 0.05233637975946961, 0.1817146176214719, 0.4683480953040672, 0.44641800920563, 0.002914653088382252, 0.11299603319965214, 0.15355392731923045, 0.12518897716561045, 0.38560577179357275, 0.1909013757995589, 0.18253253179148418, 0.2101143281157521, 0.17339050423025562, 0.05948724175548509, -0.05095361559494153, 0.02698887862067303, -0.04220007808097701, -0.012873748038760072, 0.037407037008784234, -0.02681126622700272, -0.01199272743224599, 0.01750810199067078, -0.024068443931541963, 0.0072772788312625795, 0.0035439517911153373, -0.0027901326516627726, 0.0003675248615979396, 0.047544169908905115, 0.055708485541750154, 0.2171650886529736, 0.34210037320786174, 0.35561482121358806, 0.15595637863158962, -0.024907284716899597, -0.10876461998602276, -0.004182180870584696, -0.05135961841469365, 0.22899122860919235, 0.3516676201340393, 0.39968415061325835, 0.18129419608049752, 0.16364553566245313, 0.04531100980570952, -0.26203290236151966, -0.2222708282877734, -0.2784388842580551, -0.11687867725412704, -0.08215721279036549, -0.004017093586513868, 0.07063562368754438, 0.0050642971277272105, 0.003083417310775254, -0.002284930282207131, 0.0023916054933096607, 0.0032310170722465617, 0.013255463470736716, 0.010395894111955259, 0.0769112001264535, 0.1362178463638581, 0.08299904082195289, 0.12296578984281151, 0.20841016952102193, 0.17043768145273872, 0.4276847761896474, 0.1373555908682564, 0.025463845604724682, 0.009951320246433087, -0.37554238861076167, 0.018555358407796978, 0.015874411754040897, -0.04714030692574689, -0.43194856488652916, -0.15099982484100563, -0.2907533048355845, -0.191175600142662, -0.026061788271179356, 0.06961276862724392, 0.06453846755976086, 0.005986032490248225, -0.018165030574711527, -0.006997078164426761, 0.002000695129431751, -0.000544235651699881, -0.003054840464700356, 0.009251576674135321, -0.01698353904857511, -0.06726178126952359, -0.10958555886024161, -0.09394514664143576, -0.0483935105208719, -0.2274806383184478, -0.02022950648796271, 0.09996944471325689, -0.010393986127088787, -0.2136607345154557, -0.3373447914082565, -0.2284818972493786, -0.14708519308369902, -0.07936380499361227, -0.06755735278034525, 0.028347998715052614, -0.0896315382006881, -0.09187460686796563, -0.027172603828099356, -0.02113527946723026, 0.0006845446144504231, -0.001320456421081241, 0.01129560806478469, -0.0031385402016569706, 0.008134358973559545, -0.007085225053657465, -0.00359308204698926, -0.008950443854899974, 0.006057144701380906, 0.0058544912827176885, 0.004016165817147462, -0.02755221096869082, -0.02886655634040697, -0.0007975585201100397, -0.047145353622172814, -0.012319664714100939, -0.04580814619692371, -0.029436686964018043, -0.04890363298968473, -0.018920986390569237, -0.030062608752844635, -0.0235100040161848, -0.06915191909122179, -0.021462287442353463, -0.0234160147000499, -0.012350948899851808, -0.011142006141890693, 0.002913904860103038, 0.0049796539393497825, 0.01397294671022594, -0.0031737270395818308, 0.00196902980575527], [-0.0051457476106879846, 0.003433484336862876, 0.00386213558879109, -0.006068993628552464, -0.0036230475775063313, 0.0031595234445420247, 3.369584042218414e-05, -0.000716439173835494, 0.009048599205762155, -0.012049983892155293, -0.0063171994240527616, 0.008835365439075135, -0.009142642186930562, 0.01561637127741674, -0.005025729095159293, 0.006022435232090235, 0.010312726124616237, 0.005979175702248188, 0.010166868476319178, -0.011170724233226044, -0.002495989880747389, 0.00020835120745280798, 0.0019488783135812697, -0.0011051404841230916, -0.007127879311314681, 0.01573751880545209, 0.00560467362383258, 0.001233228271530384, 0.0044174447010652765, -0.008917022611801845, 0.007077669253374447, -0.0009538747227822525, 0.0021202056494423, -0.008127336934621539, -0.005398140879876701, 0.01116472749645967, 0.0025797516740673552, -0.006957429661044887, -0.008325689160635988, -0.004690308784389356, -0.021618097557758384, -0.0015173879863936736, -0.023448663477696214, -0.03408077062725109, 0.021460523757974366, 0.0031001804235905282, -0.01789929582725565, -0.0038353448280468595, -0.015842338221408035, -0.0435825928168896, -0.03065526433978495, 0.012009738048185349, -0.002738790117551688, -0.010614516827880125, -0.011639575202080685, -0.0056230671570742284, -0.002568217149095991, -0.007967194989430054, 0.0015624764632773901, -0.0011014715922083023, 0.00241199219114334, 0.006705331323035552, 0.0002840157015956251, -0.011512253137746143, -0.005131364861479949, 0.024058019275518084, -0.026864511479073618, -0.038503520701863796, 0.00481358188710389, 0.07325754565273182, -0.02290152181451617, -0.07532577703827459, -0.04020703520832883, -0.04030858231797185, -0.06386668721498673, -0.13440566851751415, -0.07855895383884225, -0.11023048431293717, -0.09718909807602162, -0.03157332696444975, 0.05348540895401797, 0.04273963328250804, 0.008739300796696292, -0.006172768310753539, -0.006604427622986421, -0.0008636745868591167, -9.373416791933556e-05, -0.006833480971355579, 0.0014855955196336316, -0.001704182364752081, 0.0016264527691775034, 0.049070489563957924, 0.04469862958176936, 0.09086799191335795, -0.024924715859973842, 0.02420776802087323, -0.12449945988562523, -0.24077901286324926, -0.4674064422200045, -0.3580545681505412, -0.004495188956897828, -0.08630121851670595, -0.01652081323801941, -0.0679265905142085, -0.13783389407103827, -0.2120677431408246, -0.24143570773376596, -0.13226798699909792, -0.024085096108762707, 0.024868144623496714, -0.015520660098878128, 0.02114379733150802, 0.007134286051613521, 0.007113771896672145, -0.00305933283616483, -0.004796663625288953, -0.01725740144715426, 0.02513005396155696, 0.07694877111345937, -0.0865534236781531, -0.023195883981208767, 0.12725866649421738, 0.2842752979295802, 0.12519195204948247, 0.1396681295530104, 0.12049041563076625, -0.15668119807226905, -0.11845193798176823, -0.10124046172502012, -0.19478848601567572, 0.016268558765725145, -0.0159495868039764, -0.13967678734424233, -0.23604680471752768, -0.163404770302759, -0.14806869495161612, -0.05340527442154744, 0.0006757640582391475, 0.004639919860257497, 0.004725570994267833, 0.002245080165881529, -0.000843026730162419, 0.0020238388773016844, -0.006967767119412755, 9.361891783743588e-05, 0.053100985196102665, -0.04828751085515681, -0.009853472848372615, 0.036784870825192495, -0.16138131117076038, -0.13667281051811908, -0.0447896888126979, 0.39501315621587296, 0.22789674381531716, 0.00417782968766219, 0.17242386641621618, 0.2295761503247776, -0.22042649107568646, -0.14380792362678574, -0.3256257183222217, -0.37811551949965244, -0.10982346186752089, -0.1590595283241485, -0.04148543412856943, -0.08228298865010747, -0.06868841245571018, -0.04231187395443927, 0.006670904051874087, -0.006487123810893547, -0.008390530391623637, -0.026834010019312068, -0.05781375458855535, -0.06761904015846634, 0.010300658643910913, 0.20815225846187302, 0.07073938224906806, -0.03766299327630355, 0.24338626633865518, 0.6342855313014003, 0.025266578780405398, -0.10772778309893595, -0.12954409649739326, 0.1293891615898325, -0.12907850762719222, 0.11740478485086027, 0.022846849731887463, -0.13964273379691836, -0.16720807819055894, -0.2971844070378043, -0.2367046652693433, -0.037547554270330165, -0.18493076886252577, -0.2544272816691271, -0.20572997380701555, -0.04562230169028852, -0.02123453237698372, 0.008048864466114969, 0.006448107960691146, -0.0038742781549085336, 0.005402646033106637, -0.057649049127053036, -0.03422423189221838, 0.021479998516021077, 0.20009921016307736, -0.013839544895286833, 0.1224970186328416, 0.32628986530277415, 0.11830283786781666, 0.03750648830697363, 0.02168431322640826, -0.004458103088101359, -0.2642683708102015, -0.21935773177878184, -0.11349963011596051, -0.04059945343860154, -0.04096220136601223, 0.41435252180591864, 0.06475758414397391, -0.021381324266687696, -0.27338685174886507, -0.39775983590156777, -0.26794124716048656, -0.021080766134573454, -0.011383841444333746, -0.004592364382957894, -0.004338075326384046, -0.01218545678855283, -0.024665500149217885, 0.07823540807414325, -0.034653744659031475, 0.003832648450062764, 0.11880819515922378, -0.030457216283510176, -0.14722210174448944, 0.3443563934098327, 0.02555598699507841, 0.0083449725887461, 0.24432912114277938, 0.6697697604089414, -0.04183733370401734, -0.2929974187389753, 0.04745355942290367, -0.13601843783286202, -0.0625886684687338, 0.0920223200699054, -0.11854028080090669, -0.10922348214105529, -0.15679485493160483, -0.3817395338568983, -0.20888157214964603, -0.03883477377758392, -0.03693350419353531, 0.0035979899194973964, -0.0038297809682344163, -0.0015236218847240076, -0.013426309984545876, 0.16467728552190106, 0.30951165785676016, -0.17004089370162198, 0.009715396411915427, -0.10075520046162693, 0.015370702379905, 0.08213312321578486, -0.07022763944070337, 0.07000427207393083, 0.3012086727756942, 0.37321829004952933, 0.3024898549405486, 0.08867297194361759, 0.26472075882636764, -0.3097852657192528, -0.3996575272932185, -0.09886938984091398, -0.2055881408465424, -0.06567917014327913, 0.001253514428042403, -0.2708052115663171, -0.10435717641571123, 0.0805070709908892, 0.1113112960524008, 0.000550001515600106, -0.0031689054250807445, -0.005167105122962251, -0.15920142593499095, -0.11093203982047006, 0.34076440095948113, 0.14600296704137494, 0.3957610854213369, 0.45239560051054356, 0.22667645231644462, 0.4528723408369604, 0.1902834462637459, -0.2361116807982478, -0.07889383948618973, -0.25794592207252376, 0.19894736444445277, 0.19610856413401329, 0.10909801384998989, -0.03863342692353902, -0.1708941857583602, -0.3913219613196117, -0.1687936498272212, -0.07517594621332158, 0.005551355322566613, 0.010426228832247548, 0.06344131644881902, 0.02810678762370948, 0.011715319847749098, 0.003208387293792611, 0.009778519588000936, -0.05270373816534525, -0.16355374049097007, -0.1528640985430184, 0.08472578161546333, 0.10190821071270385, 0.3653252064577459, 0.35451159988597986, 0.06182224493044371, 0.023689955628441155, 0.5639857606234141, -0.29014190601772083, -0.4237357748164708, -0.009424831238862771, -0.14745030518989102, -0.2251251545859243, -0.15097825077838517, -0.08576321138845831, 0.03020696178283784, -0.0699205867262417, -0.13239560639295406, -0.14055708825492494, -0.19280973156312792, -0.06725463872367533, 0.021223205227918356, -0.10423960323313501, -0.015994285641344586, 0.0177049997128174, 0.00665314385610405, -0.03537413894463922, -0.15375613316169606, -0.140701955943775, -0.3187328515595175, -0.4092971576776432, -0.19200352647985203, 0.08518106003053844, -0.3700585266917005, -0.9201189890106297, -0.877290945277116, -1.0560943080692522, -0.9420958587502384, -0.13042662146888565, -0.16732790532107658, -0.23241055622595339, -0.12105480786281965, -0.1499516967762479, 0.03437721050753199, -0.14791650229767692, -0.0319385542599353, -0.2278130704831277, -0.4144108068295452, -0.035095841168923586, 0.1408497330975813, -0.011832840463372853, 0.03817295105368025, 0.004226421424680006, 0.004286430320165937, -0.004573869090156877, -0.19717425056729185, -0.49291805359634966, -0.5795556337570489, -0.7874806303801923, -1.3582272167644875, -1.345577546153272, -1.037758869574809, -1.0847405787341358, -0.7098227738284434, -0.39354078258469266, 0.038050945703368845, -0.01145070157100444, -0.6482533259835337, -0.16810257175162044, -0.0474165652423856, -0.3829641246811336, -0.16473360641581553, 0.03487925753009528, -0.13200242269348428, -0.17911698842845294, 0.07380800135416785, 0.18739638330047415, 0.17238059238734982, 0.051089518222237874, 0.037263106160487634, -0.00235684593677204, -0.014010466909120852, 0.016175868207410307, -0.24662058833676964, -0.5299933636023885, -0.7585541850150814, -1.1957131942651762, -1.1179901106317967, -0.9662944361482313, -0.6987592555052092, -0.43894740865324094, -0.08861530323587688, 0.3139115545373067, 0.16069213189390874, 0.23543303752986666, -0.4959468497919802, -0.29139489646923017, -0.14278863248179327, -0.25829127781647787, -0.031936700781437725, -0.2563983498829438, -0.010296484218631993, 0.08581837129707494, 0.2054819002789424, 0.08604833402136006, 0.0911187378307758, 0.19526737176446368, 0.009211435500580772, -0.00620517530610463, 0.013013067589040047, -0.015209676372722157, -0.13087330351912818, -0.4184197919349374, -0.4864453633505862, -0.5357766579635421, -0.05056683318731029, 0.27304605574490626, 0.3136472277535429, 0.43230524788052155, 0.27304677784852727, 0.20079486600996904, 0.6086182067488679, 0.12697974656216246, -0.2320356842925079, 0.0702065731988711, 0.11560816923913061, 0.06910700065566931, -0.13015441196544872, -0.07870050660913627, 0.07682353669196271, 0.014543114946548532, 0.08977991672387103, 0.18321978718321336, 0.20945050357333644, 0.31900366337812863, 0.0028877469282943768, -0.0027651012728122414, -0.007678865499848234, -0.015763094129690264, -0.07214513824792777, -0.25509720712486567, -0.15814437757069086, 0.07035131587922552, 0.4899733881366581, 0.30911191695313844, 0.1350609407118025, 0.2879169894036268, 0.17139524849867388, -0.09832981178105765, 0.22171858760043975, 0.09486566742404977, -0.13969607040641152, 0.20535931087935727, 0.0802729015428337, 0.012691828949770128, 0.1763077150531229, 0.0657011066020165, 0.2562116173387577, 0.1306938800296022, 0.21665931443655342, 0.2338833098597173, 0.29178999367454567, 0.27132768271765345, -0.0003137857751090453, 0.00950570553385049, -0.00527899101107987, -0.02733645506607495, -0.0249544454594201, 0.002352210666278447, 0.21446129250124327, 0.1870511932138824, -0.06313186241597622, 0.238792796104628, -0.043255040913988185, 0.23451523585573336, 0.04332928587345439, 0.17554285994255606, 0.18680762943847162, 0.09150116786718802, 0.0013209982709525235, -0.10517855346652698, -0.1042643092814872, -0.2866024417130189, -0.15482935541924325, -0.06694327129337761, -0.013920572109274493, -0.15008319572798634, 0.14100642271959174, 0.22154094429731036, 0.30922557895217484, 0.18450713489200207, 0.014305398037865385, -0.0032577314203289937, 0.007969881533656806, -0.05618950628647543, -0.009131314626698235, 0.022449072340330507, 0.2511593104556059, -0.028690433693031536, 0.12750568051944156, -0.043732651139623414, -0.10059015939610713, 0.05099955658365276, 0.12579485228531442, 0.08881187761040749, 0.018796096357546088, 0.04714697307998377, -0.08065486377564028, -0.10596579149207452, -0.20708127499660767, -0.059965743101916366, -0.11206293847162209, -0.5228594057796697, -0.39742478611244725, -0.2784763396714139, 0.1582951718200174, 0.41068760510209135, 0.3247403959708857, 0.08920895203327887, 0.028099559856760516, -0.003431316423629011, -0.011908474186234603, -0.0446644284075645, -0.08126428377009856, 0.14891853387651874, 0.05425178496955891, 0.12893001859921374, -0.025445482264023676, -0.11627499632920248, 0.10914841936092104, 0.11362093827071587, 0.3382810667155093, 0.09507556304462403, 0.5929671208238917, 0.23744949702940535, 0.07490804631254562, -0.005807542795747851, -0.28514406419407384, -0.3120937926427239, -0.19198664044305738, -0.20263401806440157, -0.22751558714102937, -0.03889636144001296, 0.037735786401652115, 0.12354324416396434, 0.20997150138665827, 0.042964994520405246, 0.011132424155215781, -0.009338102621171117, 0.0007291369496900444, 0.032312028591765754, 0.14321619487606185, 0.23545997806986999, 0.04906711907286292, 0.2197653107326665, 0.1994508059079006, 0.3305361685610739, -0.08167873470015483, 0.014241458095665488, 0.3089444769134893, 0.22341288363861644, 0.25662195912342023, 0.24690493705929922, 0.20474544118971683, 0.26027726486425934, 0.13835243714403553, -0.14835125565318083, -0.1099529754919038, -0.06544541843060062, -0.07683612618841258, -0.05590698210958035, 0.1281536206252661, -0.018175265009836215, 0.0022525398170315475, 0.017393849225184558, -0.004644623087541975, -0.0011407682023054143, 0.00679697619534957, 0.13317781611266563, 0.22762870404065805, 0.2714588852853297, 0.253194113381218, 0.16299103829336425, -0.012576015120252415, -0.16434575521028358, -0.15826232653778885, 0.14789891597577606, -0.055739362201356106, 0.24235816857055334, -0.026506542305090974, -0.05774972797509671, 0.009618619283634116, 0.31077017367165927, 0.10781826337767576, 0.17681693519564817, 0.00819969172097481, -0.004116988554658926, 0.11922109408653817, -0.13638737941523676, 0.0731115465348515, 0.12189173441601855, 0.0648256588026517, 0.00017758573940627182, -0.0006413405360591671, -0.0036981796912608934, 0.004038641603311887, 0.07005215631118854, 0.04344550454282219, 0.23836444100894222, 0.4988193050076048, 0.10973181768627054, 0.10685904241087724, 0.31788514105914784, 0.21218636308488129, 0.06304069201589578, -0.042957356819601465, -0.11736065862209329, -0.34562731946884573, -0.0019615140193973125, -0.05876186744991974, 0.02116979393062056, 0.08815768574710478, 0.00038012732507313894, 0.12410322227402835, 0.19231128762261493, 0.21074328557436223, 0.12886413756222928, 0.037820527091379876, 0.05492003257575436, 0.04463590538418005, 0.025179009708833324, -0.003020945527626985, 0.010159594200210254, 0.008009952764571627, -0.02393157149819446, -0.1334512903935933, -0.06073321671958261, -0.06999052843755951, -0.048637869674448386, 0.04391594677329042, -0.0902375634337536, 0.3119817386058841, 0.021141729908869783, 0.1358617153885047, 0.36730154007189425, 0.23352380731046948, -0.05840635003136172, -0.0669541581068972, 0.041361514983770414, -0.10516377111753472, -0.08340373979015805, 0.01608205603515558, 0.0926601994422943, 0.14622122569460383, 0.09641692515507827, -0.028669683929633184, -0.04419827135821385, 0.049900244126601156, 0.02392780233459485, 0.011159971411553254, -0.0022448836162406523, -0.006330172324948043, -0.015449313966032501, -0.06909597310832964, 0.0013893175800426723, -0.0491540274693923, -0.05888997766822052, -0.3121560939247395, -0.07381669380184658, 0.046458194988413776, 0.055223739590550866, 0.03125923207216035, -0.057337783282793424, -0.06287030731944453, -0.06027901234711532, -0.12120368317657805, -0.09531009080801504, 0.22407562961456667, -0.1374560654177424, 0.09772715268508642, 0.07699817369929146, 0.0677198991180856, -0.004929323676910377, -0.05760092753296754, 0.07530964160559074, 0.059907288936980635, 0.00493844565480217, 0.005042904287613389, -0.004465125875520238, -0.005691670365193571, -0.003498880152426095, 0.014517435972737238, 0.04817494479546232, -0.030211870294834887, -0.031068407458964442, -0.008489956938757788, -0.06521106168198278, -0.16370649541679383, -0.3564367780423086, -0.4719173678158383, -0.05904976895880925, -0.3988972314084664, -0.06417128876444525, 0.10145437168239022, 0.14016401155546776, -0.05690512200112868, -0.274918749108933, -0.23124006281345694, -0.12101183241539103, -0.14683185802614768, -0.09412721988759819, -0.05328321781780579, -0.024860830693409466, 0.0026018150691346567, 0.007971645405006849, -0.0018942579800390838, -1.4096805201273836e-05, -0.005542513808035343, -0.008298803798787405, -0.0032407434898153653, -0.011547980050297583, -0.17471647451860708, -0.14729929282144705, -0.016071164105339722, -0.04733550578262886, -0.10940413324020115, -0.27528946059934356, -0.24376780576235965, -0.22408748766985376, -0.23590694071889748, -0.06956647140365531, 0.036904259332660554, -0.10677242508374785, -0.1259760101160456, -0.06945889390038583, -0.02983966525104169, -0.1295754911576389, -0.1577995390423271, -0.05015128407827799, 0.0064115124919474215, 0.004555981303728465, -0.006513062576467004, 0.012640456757780342, 0.006599994471761638, -0.00316855768324822, -0.025716126753749825, 0.00506723668639767, -0.0008598795159700377, -0.012500640213833127, 0.014247381064243572, 0.008723017073900476, 0.003676344498226698, 0.0005023747432774481, -0.006273161792829726, 0.012149894498797609, -0.001669063877051641, -0.018421948700003556, 0.0109547627284641, -0.004947640297872276, -0.0014210743939419978, 0.02286485716396054, 0.014259355045427101, -0.012844297040384702, 0.004475708336287268, -0.0681600317581496, -0.05522954547750489, -0.06329314479394257, 0.006869809576769083, -0.004018017872444941, -0.013913700902479436, 0.010981165157158057, 0.015243366117410536], [0.008783197018539881, -0.013538852138285212, -0.0006710304105307064, -0.004248307055671494, -0.006681136616836109, -0.007264398561284748, -0.000695833247533162, 0.002928582430466725, -0.0058017612375021715, 0.00699667570336632, -0.010258447337097281, 0.011779227911830512, -0.00785031101693239, -0.0016404244967895803, -0.004372025089283239, -0.002354106048935945, -0.004894974520313095, -0.0037169860767952757, -0.018326851077293163, 0.0021830783182101394, 0.0003742074566006007, -0.010674095135739557, 0.008869614945975967, 0.009642943506498376, -0.0024572049221047044, -0.004380240068458684, -0.009426249662098816, 0.0010369133109223126, -0.002278432380164101, 0.007507523629318889, -0.009771219877358864, 0.00264943246074467, -0.011441965110104814, 0.0007896697864317597, 0.0013066531897392413, 0.0057709393459714035, -0.031383869537587906, -0.01029391208026972, -0.008031811331724122, -0.0020251897798134796, -0.013858824084305207, 0.0005742970474145599, -0.0036234460381156398, -0.005633205557599238, -0.01201459723987097, 0.010849612653819354, -0.0027757877497704042, 0.004462166611835339, -0.008693050736992048, -0.0022844854753653727, 0.0037491677260832585, -0.005051935248151652, -0.00544370764060148, -0.007908096816504465, -0.0071587583431492975, 0.0057897289589729315, -0.003631723454989412, -0.002722483264183617, -0.009168114832925565, 0.006983308364859233, 0.006455173203411388, -0.004378345873197765, -0.0008177398973423277, 0.0029351458167569348, -0.01594071959371392, 0.013411060435014143, -0.02858852155385204, -0.010966253151762738, 0.004843580011934786, -0.01776079768912234, 0.003946405275451849, 0.0004214382566622332, -0.02792696210639678, -0.003603672707340033, 0.009737473390873098, 0.009531157001624449, 0.006247176587691258, -0.0006311983430634044, 0.0039742339344644405, -0.0017653056463982017, -0.0021098134905274046, -0.00256723144726128, 0.0024277336444851966, 0.013053651842692518, -0.015340261502703116, -0.008444792584060161, 0.007536912124268757, 0.0044786229603703005, 0.005716534176613651, 0.012658190907168382, -0.0020535420008032258, -0.013602656223804433, -0.08237710250682892, -0.012886624052185455, -0.04520765853389123, -0.050868047226555115, -0.08809583789730717, -0.10042943948909765, -0.1501604379967898, -0.13145815527311389, -0.15592549924402968, -0.17881059247076309, -0.15499703027793565, -0.043945226907256725, -0.004361137300909599, 0.0270955638527755, 0.025481763869148886, 0.03909889117337509, 0.034398718357043376, 0.013151789098269676, 0.00024665632209881853, -0.003261973772039484, 0.004272775991951429, -0.0013838618423412808, -0.008797683892521, 0.009315090631082384, 0.0026452223403222864, 0.008700304309064913, 0.028733984594201928, -0.07028419777598596, -0.06535590216002167, 0.012020535211543969, -0.06503535377127719, -0.09715342153169913, 0.056920913553861786, 0.026038391157864858, 0.007898765905463167, -0.05437788753926865, 0.10602769166794741, -0.09200076313790868, -0.027884262508554736, 0.022986329190028694, -0.019700455016157095, -0.09224815840667348, 0.0020644405198153187, 0.029531296214301842, 0.003814278851119542, -0.03759878236217911, -0.018703953770456708, 0.00485041331919239, 0.003144169644963699, -0.00974473785022947, 0.0145596136026727, -0.010839257986975218, 0.0009569460456832456, -0.011440274134111186, -0.055965282258863935, -0.12044595970546919, 0.1076682111377304, 0.2997517265780044, 0.36121161963752396, 0.1831130855581987, 0.1685104000843285, -0.4218966649850563, -0.5127814324769613, -0.7002221919167585, -0.3752462088597628, 0.05662148599315909, -0.0023370474385629894, 0.16749381576624145, 0.14653917749729847, -0.0037842006941165495, -0.05454361569088197, -0.027894082076839397, -0.06785097875765048, -0.06789098935781536, -0.013152702481039332, 0.0062044207736946765, 0.0029283524148503042, -0.002186904841744448, 0.00013686129805722468, 0.0020450952349240934, 0.0034794195249007016, 0.014416989856633292, 0.029654227363364906, 0.13845754599077081, 0.5483359509798558, 0.43702037319809517, -0.0007928315294616845, -0.11050520516865554, -0.08254677309119358, -0.591368107667306, -0.6369390606846889, -1.030508944595803, -0.4549626178435851, 0.012964014687887633, 0.21254419969890032, 0.327478137644878, 0.11902437723114678, 0.0699640845641895, -0.012064602952126913, 0.11953353735222996, -0.06684840726545886, -0.03805323351042353, -0.02105141419476341, -0.001090279282014719, 0.0051420496697572905, -0.008816184654361186, 0.030969378023523866, 0.05193543724736518, 0.055084396753344464, 0.08450306683208547, 0.18894134504517301, 0.5130989270223493, 0.31213076714325383, 0.5115005864031464, -0.010526326112085394, 0.14188365499611336, -0.04103828381959811, -0.2571124405908548, -0.9923731061143907, -0.6099831434223604, 0.10845892333092748, 0.31650750916641807, 0.4788574246796238, 0.26780845774464085, 0.07304817498252235, 0.12083037440971651, 0.06913031785730271, -0.09022223117096853, -0.08479030512383931, -0.04390514973739341, -0.019621973650781454, 0.004206362511218037, 0.0014791456948900236, 0.010325066425077002, 0.057471719453464444, 0.06591706780741806, 0.13806856830358596, 0.10982561466649263, 0.12541115389952529, 0.4492594868342161, 0.3699317406700886, 0.06618234944932026, 0.6076830167436371, 0.23562159196045523, 0.30552162829434937, -0.43208004812386797, -0.9725546532355196, -0.32220122481911945, 0.20145858756138244, 0.24569350522665068, 0.3258571651835263, 0.1003487750078409, -0.06365719992575225, 0.1688693613691315, 0.08886117382401132, -0.033953825697815763, -0.220551990619702, -0.08121651873929839, -0.13862473942650513, -0.09642380127402869, 0.009799655935509804, 0.015498277100463495, 0.017389386375137542, -0.07497682854769853, 0.10405048060103635, 0.3386784941225702, -0.1424535103988798, 0.10416664359470666, 0.18431404161856402, 0.028752175208189925, 0.5033265934919129, 0.19040397118891988, 0.4669442376393489, -0.759377766837063, -0.837179751061007, 0.09754350222443556, 0.3720470702706251, 0.11149735443596008, 0.19208807486031038, 0.4220395211383778, 0.07297063038941079, 0.10945146878315144, 0.14498136840863032, -0.02474366097158887, -0.11343442146421187, -0.14062056941202739, -0.08262924567280226, -0.0036355104383345516, -0.009950977900104727, 0.0029137343349845916, 0.003384756861863324, -0.1387289595173767, 0.140765495160771, 0.2895546761621952, -0.4063871858167774, 0.16076209126342275, 0.197258408790504, -0.07959539204938677, 0.23438642001585103, 0.2713002730655723, 0.21427755945713906, -0.6820942497962823, -0.7749168250116328, 0.20895696387888385, 0.009551342759383586, 0.26709294313021315, 0.0961854268646582, 0.1390852988491298, -0.13279747508275308, -0.13590939533507745, -0.0832429392876872, -0.023477938015526657, 0.030073965062248503, -0.04221561163213374, -0.044486404776504035, -0.0009588315369857733, 0.012255275820613542, 0.002994734496300132, 0.0020291830276885237, -0.13246865467007368, 0.05610014386163492, 0.2204832886345763, -0.17876446594778886, -0.20458634372303786, -0.20446421595246442, 0.02971286040290701, 0.11560362854908036, 0.44707759416540677, -0.051236007156041756, -0.9249271796641321, -0.6583086610697988, 0.215053849030188, 0.2292768420892762, 0.14430060458721503, -0.161027239018857, -0.03180992827081354, 0.022166121931042004, 0.05548332640759101, -0.1866266108172317, -0.12251338258058023, -0.07517681008460073, -0.022820059071749336, -0.07631781225584054, -0.012985727224958022, 0.006497254352087906, -0.0003702801487246207, 0.02644756342427826, -0.07971106740603096, -0.0343054683965911, 0.029848836512406045, -0.02593446511531105, -0.058125403320687906, 0.022318267258438364, -0.07595768645089593, -0.07317394167622485, 0.2398382338639919, -0.020330325156647025, -0.9180438071828895, -0.6425935411096902, 0.1191972529173926, 0.297368333087164, 0.11818345286793751, 0.061068469996679496, -0.08699030498018531, -0.12643563296604665, 0.033806139826128415, -0.04503627647048706, -0.10262484520746583, 0.1437227588353165, 0.06039138638593945, -0.012127246327987732, 0.004034785497007518, -0.011755384906116502, 0.010228886610447815, 0.03451379824054777, -0.05751359206666321, 0.003462062107256309, -0.10801525398146752, 0.16314023273573852, -0.05317530366056363, 0.2282028030548373, -0.06625180321345832, -0.11270876093114716, -0.05198934833004886, -0.4288322971205292, -0.9858930464673733, -0.46084708046843664, -0.14072826012813844, 0.0018551198624936587, 0.1066394002168471, 0.06559968491215701, -0.08348673877123888, 0.15918940866900805, 0.19369859691248242, 0.03087557349002705, 0.052400370920052355, 0.2561555956320839, 0.09441972593162908, 0.0011404677587973724, 0.004240393902234189, -0.005990516873311374, 0.00011379790767444779, 0.03309787439343637, -0.07299192155630706, -0.11661853093723333, 0.17178216188006848, -0.09667524468629891, -0.1388072560067032, -0.1792338379104557, 0.13820036236249658, 0.3261623596777501, 0.17867221810419473, -0.6539635596279828, -0.4616509729336814, -0.14756081623208148, -0.007877231341519832, -0.04488757492146074, 0.10525986554236533, 0.2544252257840533, 0.6178140161148846, 0.3585299956098918, 0.1700809238900498, -0.008221230560629126, 0.2028908202084703, 0.0905920430336848, 0.05014789462036777, 0.0006239059611738391, 0.007154702062798778, 0.0004461881342274856, -0.011120538373962307, 0.006658733701940771, 0.02126740562284122, -0.07753023326122341, 0.032844812561453086, 0.11849540133940818, 0.34071407746421145, -0.2808200986237166, -0.1652826666216713, 0.23315129950252164, -0.26376001000304006, -0.48420565433306795, -0.2505799248537705, 0.0878947798358226, 0.022118339070136123, -0.012831335011914493, 0.12674641065470063, 0.2240087768187277, 0.05556541856249781, -0.08605269795368263, -0.05473415592490188, -0.03137309502537483, -0.01201772407590025, -0.2094143712540929, -0.026673686214300246, -0.009726308653305614, -0.012384369958603864, 0.003285331127374275, 0.0011300863077929224, -0.003921929071707194, -0.012065802257010741, -0.0017730368571584737, 0.0095560043915205, -0.028364759225758755, 0.1442940284907231, 0.12481322017248662, 0.039293717877268514, 0.0018029700921654989, -0.6068474745016231, -0.6162118537763459, -0.1514074935578309, 0.2371989257777046, 0.08641510763697703, 0.11377869793527035, -0.04064874369459631, -0.09625186041409765, -0.009101042817481737, -0.054628529675142874, 0.09435276890157934, -0.34207091928458894, -0.03878618682186459, -0.05770472684044193, 0.03241615051153543, 0.05119363601634373, -0.014466135935599712, -0.0033622261049852326, -0.0006862525532489204, -0.026967783533883655, -0.057231527776931426, 0.15262374257453556, 0.2294766274751895, 0.11331754224449772, -0.1948569508921019, -0.20938244332240857, -0.175094567647574, -0.3496348511312091, -0.34500925172356933, -0.5051299949437846, 0.11168970680499986, 0.14092759180270284, -0.3381445768452674, -0.0497757942947246, -0.14304620502957408, -0.10417878307866515, -0.2710017397846995, -0.13907503973048052, -0.15729611885845507, -0.33331159880180417, -0.20122747710471542, -0.14948076886812403, 0.0059565146309497425, 0.009809217548528872, -0.008186210052932567, 0.017668998507228074, -0.019820214156609315, -0.0194165255393286, -0.021795418461478, 0.1281724008411144, 0.15640576115503568, 0.040009608189619385, -0.06895253597044419, -0.13104073555463663, -0.32223231683501036, -0.718371236774279, -0.5872932118076832, 0.07405671577431258, 0.11745466177378938, 0.18080088266845698, -0.34316536742555925, -0.21180346612982098, -0.10371455770206141, -0.05444938849991726, -0.23958547677323933, -0.4846488340575941, -0.11411153059410972, -0.19451768837553593, -0.10053963066301698, -0.04420107073668941, 0.030278864859508287, -0.01596989345953704, -0.006330735715743676, 0.006067736674823584, 0.008530110965051466, -0.024375983466733392, -0.04138252919337677, 0.0192612645146559, -0.07256601138218478, -0.02429609656533473, -0.1875368385787241, -0.3939267401702598, -0.5634067103413598, -0.6875363089871134, -0.18372708209702063, -0.07560218735583842, 0.2364498541689958, 0.148164111340358, -0.06537235573939709, -0.14305247053894193, 0.13169090294201205, -0.12497966892802473, -0.23457270536225466, -0.049257497446242575, 0.06843284383270143, -0.20743994828027815, -0.0261019696714967, -0.044927062415993334, -0.03229849736592242, -0.0038711633860299684, 0.000676446456484358, 0.0011852605949765863, 0.0032424021869819036, 0.006373579495784794, -0.055630003155909755, -0.09855791120855961, -0.2391324474882954, -0.1931733203069152, 0.059241199395852394, -0.4125701050789739, -0.4704537081132588, -0.31513785647208753, 0.05752583806622016, 0.35710943494032704, 0.27711582239547866, -0.04409949923265412, 0.20538990756796782, 0.057695995296037264, 0.1474736070813543, 0.17678754619342565, -0.22292751685338194, -0.053364669984402535, 0.02898734612692823, -0.15384075208963333, 0.009745863005781745, 0.004795499761313762, -0.046400962028360734, 0.006328932311660394, -0.0012275138021032007, 0.003213943302839055, -0.0037537089800588736, 0.0043923166291010216, -0.07284233065448101, -0.15880595688076488, -0.2953037612003794, -0.1514462144198702, -0.03836255628165247, -0.14253494844541761, -0.3084310932712608, -0.09987030134644932, 0.34784517525640724, 0.0029627264230166353, 0.09344046112421692, 0.1106427757075454, 0.03594913313874601, 0.24793318062215725, 0.22987077905229725, -0.06826156051327247, -0.07564837209779711, 0.09307916152279579, 0.0605859780488246, -0.09006153057116147, 0.11481446828672949, 0.10519918717631221, 0.019560338803683026, 0.011758675809633719, 0.003230105528099584, -0.0027038512220023507, -0.0010765429527646929, -0.007015087667247345, -0.06800495723140518, -0.08485764297935117, -0.22934431774607492, -0.13772918417373547, 0.09116546348357724, 0.06870708042303829, 0.010467428375639264, -0.17119599532465216, 0.056529174179444454, -0.0740779460502339, -0.0508782871680256, 0.1076854786580096, 0.09257552690901509, -0.04551899293728157, -0.22102280901097413, -0.13786491792282624, 0.024970487621211384, 0.04691458937895362, 0.12107953327275221, 0.046217295019268724, 0.06606877118196888, 0.15067644745395328, 0.06733855091279306, -0.00030582733734663326, 0.010629886394825917, -0.006716732244996622, -0.001049650016876154, -0.018040256303104227, -0.046293416814717395, -0.07240003432444621, -0.14040275359586385, -0.19512431386975781, -0.04322728175173265, -0.13104354107034974, -0.07363670466077972, -0.11908434085210969, -0.06635132924005058, 0.14750250307763033, 0.1751931585789857, 0.15208838098138827, -0.008434971623737032, 0.24046565679333148, -0.018213581911913294, 0.16792944803518403, 0.01746749622187659, -0.02801420472103202, 0.1378889639153086, 0.0003312908458574521, 0.002268250293210652, 0.11518934228903757, 0.07762740238986607, -0.007967422000981685, 0.0011294093714253601, 0.009817597232311438, 0.019077034566749702, -0.01927856366309085, -0.030006540456175755, -0.05461167689616544, -0.10198322716972742, -0.12703271829694038, -0.2779164931464714, -0.2586610476627037, -0.1478130638016753, -0.27176456369720603, -0.06203905259660879, -0.11682116925273803, 0.3034276567660681, 0.15085223264883807, 0.06838641656439393, 0.2373018732627109, 0.2305545481473432, 0.37163470086324646, -0.04548917372630435, -0.15547438747687733, 0.053984073522834644, -0.018087751827698912, -0.04925987481746237, 0.03253919252803006, 0.018030344469947213, 0.0028047229895667015, -4.375912740083987e-05, -0.012854581656892072, 0.01054114021269884, -0.008602979732775221, -0.006144573246960224, -0.040101199884051225, -0.1586670009944753, -0.21360620162270194, -0.2354219364773045, -0.17477313118599558, -0.13724140741187374, -0.23432434386520037, -0.015990547766187423, -0.056649414092932955, 0.05452929566219753, -0.010407228483197133, 0.04865639081128161, 0.12986977101333508, 0.03106292408660223, 0.2599524123519993, -0.0809053517179986, -0.19136337932889452, -0.1905786719259487, -0.08315240468276311, 0.004575331543359659, 0.00960056946319065, -0.004053507579940541, 0.0004892113881953636, -0.003143488584068907, 0.0051067865136660015, -0.010266238457055321, -0.008991249938166626, 0.004875876226609448, 0.001277620589832668, -0.15728648696336484, -0.1636039167155676, -0.10090321484725347, -0.08035775846256696, -0.18750955795670254, -0.4119742375795502, -0.41166921164862597, -0.33834919133990166, -0.3106175252585803, -0.20176871741311384, -0.01947720993008262, -0.2040748847802655, -0.27659154020265536, -0.03625069647912699, 0.02755670649310718, -0.11871498939384396, -0.14074527743218154, -0.029409208724359794, 0.0019686492451251314, -0.003124545034698654, -0.0024969993594418354, 0.0017280712458394426, 0.005080106416224855, -0.0013865001389266425, 0.003104805628041783, 0.000509791210077569, 0.0008607484011937407, 0.013527915847086524, 0.00013437312378357404, -0.0013593834492996858, -0.04038691855277418, -0.012360329731920448, 0.015941565984141322, 0.03875606245593536, -0.005106458749648706, -0.021743532505109336, 0.07111844185348978, 0.004495233585001738, -0.03917959786471644, -0.00536541791584623, -0.0032517976769957523, -0.04121684754515973, 0.004947012785222426, 0.006290292249448011, 0.015130426495745839, -0.0077105731870025515, -7.282016571858771e-05, 0.0034442823921294993, -0.015468785495412685, 0.014006472474796318, 0.003826534806441705], [0.0028682472053033945, 0.011850621716385415, 0.008803264232334561, 0.01883858131559237, 0.008140027206089246, -0.0030585768982071453, 0.006905092076036056, 0.019667289116366296, -0.0005980774406037322, -0.004508691032824218, -0.00358212864437279, 0.004294854045381449, 0.0057927873379897, -0.0012167614083166578, -0.005443163786237384, 0.006508155490317676, 5.021003684546088e-05, -0.015589437110208508, -0.0035378329525318926, 0.006328867803792621, -0.007632205801592559, -0.0017637112063435293, -0.011519578032140787, -0.0022784893772213803, 0.005291600559483799, 0.005765802381117659, 0.001807419857851292, 0.0057108252809830356, 0.00253341518153872, 0.010776311284447533, -0.007831165672393363, -0.013731900057514027, -0.002508562904514172, 0.0027359217678789376, -0.011510333281789676, -0.003902015446861583, -0.010109229381311395, -0.0053725279770912085, -0.005662779723923458, -0.01428882119604285, -0.008039398479909648, 0.0006582241906102487, 0.003578169191871925, 0.02017605435944785, -0.00035999992969069585, 0.0049760651080273405, -0.007191847620838811, -0.014589609308400968, -0.006761486944102491, 0.003455684295906583, -0.008671035139269248, -0.005582882870610126, -0.008258316366399562, -0.0044216321903554024, -0.006979595503785864, -0.004356699891152598, 0.002529733399124854, 0.0030913946173564645, -0.0017018662545578156, -0.010130382340169691, -0.0059102154907939965, 0.005351133521189802, -0.010248525380173514, -0.025654357356522405, -0.03910804282599638, -0.040281096281192905, -0.08388269166924474, -0.11788012532596732, -0.04552512745514613, 0.037632329936553015, -0.025388931097028517, -0.02695122571753867, -0.11538121994557696, -0.11527194809439324, -0.16821213936219634, -0.13420373677365888, -0.09749225360891767, -0.08063190435028161, -0.02861001104461354, -0.004123949785814186, -0.006653149911850792, 0.007086176754843199, 0.002048924730150349, -0.0023449038809899973, -0.003247243000159841, -0.014964992450526923, 0.0017765249448722814, -0.004531884089794803, 0.005051534388843243, -0.012355106307618506, -0.02708319303935465, -0.023261191587993398, -0.06534614894551874, -0.1000351424204636, -0.15438851508607135, -0.26736650185491634, -0.22092538827646235, -0.14571285325640362, -0.21647490435058833, -0.237461147843813, -0.2807381636995387, -0.23362592192266668, -0.43052066041598525, -0.2906197385042434, -0.09615808864913811, -0.2104473404012567, -0.14031494525492247, -0.09981762838574279, -0.10699283653043509, 8.266909321728333e-05, -0.019585036775297947, 0.0060828814462187365, 0.0015984846888401224, -0.002491984200304933, -0.009717026191775967, -0.00470565935373883, -0.006671590664586388, -0.006401977956239393, -0.01690526076323971, -0.08228949389626572, -0.16142824401207162, -0.2501628879611148, -0.5315275038429896, -0.6758169946719876, -0.5608298848516944, -0.36583231639554703, -0.2688772152291659, -0.2916748700740538, -0.2541033371731234, -0.14903197687999828, -0.1329355256097762, -0.07287312372206801, 0.06465269058341919, 0.04158386419154119, 0.1415195710404738, 0.09417749517464154, -0.029769910818855338, -0.17165602673388541, -0.053151305474119614, -0.01922572700983666, 0.013133908530827427, -0.004393764883108127, -0.007449849637746519, -0.0010696818707872768, 0.02840359064381543, 0.08723400442531823, 0.1330794170534324, -0.030799991419549318, 0.10924963072717597, 0.23640703045751757, 0.033714164322412206, -0.14485874972067192, -0.257427533306795, -0.31672719529093646, -0.1833463533757061, -0.10981219823155319, -0.18126612765132952, -0.34744288413152075, -0.17805001411164886, -0.4199787726690271, -0.3586937121358803, -0.18809520130604757, 0.09893089033705996, 0.1930483464035066, 0.10746929924970118, -0.1608296265266817, -0.0815195751327272, -0.023005768168723257, -0.00222714776692618, -0.0012382312781878215, -0.011970382851716987, -0.007703264489316394, -0.04505455192816419, 0.0632279258364648, 0.0980093560938357, -0.07139890621890985, 0.10600957915061841, 0.16717863185622028, -0.042900726800821, -0.06630190258028716, -0.13273795203898564, -0.1301172267443593, 0.4080048297350966, 0.02871385183662317, 0.25142645633278987, 0.2591342795705136, 0.30204998662083204, -0.10036782938469815, -0.21257075820659005, 0.17375966135208207, 0.1356236779484135, 0.0006586043721617502, 0.019209522806826175, -0.0978811114498362, -0.045469778829881534, -0.03270629835436783, -0.0038562188602744726, 0.003987974034254986, 0.02590071959953866, 0.037111271560128375, -0.0459031819134483, -0.1868088025010421, 0.008331836170071756, -0.11506682172045525, -0.13736105078586772, 0.3312138681999481, 0.27336975650758977, -0.13695421827995793, -0.17524442882476532, 0.30348095747650916, 0.08136594174559296, -0.3788344692478526, 0.4098412287158263, 0.2641640166122596, -0.1275271633760385, 0.4183081776811939, 0.22224192200119652, 0.0835196016738174, -0.3273592825207815, -0.0413566579353074, -0.024549280759467176, 0.08000686145692744, 0.08481696276832576, -0.02345585694865398, -0.012860165078221913, 0.019768266389144768, 0.05301901728810211, 0.06453972797465783, 0.0027743500993004646, -0.1317215108621309, 0.005704726173473721, 0.2075282376283956, 0.25859262123915433, 0.1997621781224333, -0.03713897599785063, -0.08409868123847236, 0.022646452479658886, -0.46202444861062336, -0.17707283037504448, 0.20201636996531955, 0.1163429314951899, -0.01926039866806629, 0.11284614202812819, -0.019731513807203057, -0.10872476997267835, 0.039020147756286386, -0.029323965681335593, -0.11691371315750032, 0.07812486925753197, 0.1262231914311488, -0.044384417520792405, -0.03299854904094692, -0.010094673635693621, 0.008066498009066614, 0.03337522852796865, 0.13108907424368751, 0.1433540194086629, 0.032134048569060734, 0.11909982671653287, -0.12354442990655204, -0.03537525704351422, 0.10819146056413803, 0.035877421185221456, -0.018869455915569686, -0.09977274286023545, -0.20532556394624815, -0.11271388433346273, 0.2402045870547508, 0.03722089169285205, -0.0050415959154660765, 0.3441261727911115, -0.1392443534963946, -0.0736163690114179, 0.07420535474230532, 0.07141830531246321, -0.2465869213640843, -0.06628430703948085, 0.060439565154754855, 0.0741239874167154, 0.13941986382564722, 0.003983723670030828, 0.033321500431658276, 0.05248136924087283, 0.19809012561963152, 0.1991130152627873, 0.09544225839846072, 0.08758807227084732, -0.18732539449104563, -0.04105357382523869, 0.14474156968637908, 0.266708937005244, -0.09208086343356572, -0.06229896288460059, 0.13913120251442532, -0.0395048703277587, 0.6377299093754867, 0.32862743696249147, 0.25427873798257905, -0.0185905975380311, 0.08665474443502595, -0.17010835253358308, -0.21062479004828907, 0.005806647282307931, -0.29325814446325804, -0.1680946728020312, 0.1904512327740978, 0.12362018252113108, 0.04224572338213224, -0.007277837993273755, 0.0032254555736256877, 0.12432228566607706, 0.155875978072697, 0.08715431666042622, -0.10432940899265317, 0.08580445921545088, 0.3326714534868314, 0.05469004723403074, 0.2148885994619075, 0.40498460662162244, 0.15067213119664397, -0.25158703815814587, -0.2309451810617121, 0.2822725421496662, 0.7243963755947871, 0.26249935788038314, 0.5505820019052218, 0.20653498437478485, 0.046212749553954977, 0.06871716643236848, 0.2611589912297014, 0.018733919253292323, -0.055275000391927155, -0.32235149548155106, -0.12333711013274899, -0.0673886578347103, -0.0002482582207242095, -0.0008563160669079775, 0.0027311315421663022, 0.05866169790123764, -0.014933758136984967, 0.0649480161733593, -0.2575285628472423, -0.1798950921960239, 0.24189106849273367, 0.17382863790212139, -0.09170565823591256, 0.14036530756686785, 0.11059340878021094, -0.3999506912206116, 0.20799285784959598, 0.11327533035995134, 0.3758668964028752, 0.4952779011292248, 0.12164755801340839, 0.4350105003222257, 0.29938561457025503, 0.1286103856766466, -0.089597487682214, 0.02432599913351484, -0.09170865029417809, -0.2909986448577086, -0.10253400643556579, -0.009812094751477131, 0.0036929709962455573, 0.005672114841561367, 0.0012313186353432918, 0.03138533521493292, 0.011347081590708553, 0.1948426638729499, -0.06545654925256296, -0.05243935576009596, 0.03749733429250485, -0.08455080314862552, -0.198057182342725, 0.2848673416120307, -0.1150237956425933, -0.088563633597672, -0.2025685456132109, -0.04613600585168298, 0.06370132115759067, 0.22363728262683322, 0.34761592042730255, 0.09632962376771192, 0.14661178180968895, 0.04885657848212748, 0.07445723720904465, -0.13875210146877118, -0.08806201542523959, -0.01738039433606723, -0.04883045794609807, -0.025281515784461875, 0.006462196935142115, -0.004748544146399857, 0.0053914788458509335, 0.0348803310481379, 0.055895862299854895, 0.21918234490521157, 0.16292981157165373, -0.15857727558017004, 0.14245443003818173, 0.08181975320428891, -0.01914768569668301, 0.26888072794871043, 0.11159918136353515, 0.01344673430173772, -0.371826875425969, 0.05526560924794197, 0.06344907597035779, 0.013102076929395011, 0.1095119061428161, 0.3234749555658936, 0.35893180040332645, 0.3282059050415508, 0.15377613164334758, 0.3409339206704684, 0.31386965339661804, 0.152654804025431, -0.054787850455452626, -0.0035346699120072655, -0.013517907694697372, 0.01298973985848695, -0.008537871242956388, 0.004900089410354571, 0.07050627878453772, 0.15308303169414228, 0.03202438008640653, 0.0787661529069258, -0.08207212156250299, 0.0016795286845237563, -0.04165611962466381, 0.17298046121052638, -0.07304967770396185, -0.212966349939302, -0.2727798344147183, -0.07144121189382785, 0.07275880817280157, 0.1590245377573549, 0.3240220186800462, 0.28034029065941707, 0.28994347071304744, 0.2772067104744675, 0.2021044165827436, 0.3697670916538216, 0.17993116563496683, -0.04019621543485016, -0.09832871351268394, 0.0011609794592818657, 0.011696435036396228, 0.0010856241605464404, -0.0001243082473659221, -0.006463642875081554, -0.017773055695368477, 0.15689906044741553, 0.09372116578045739, 0.39694904217918636, 0.3378789422695348, 0.42861208851835764, 0.2333618815332859, 0.19895220346278014, -0.2130221651051528, -0.2300095114481531, -0.2120758648322515, -0.12561641087938294, 0.051220502260383806, 0.25287213703075234, 0.29887241285181027, 0.2929705196834098, 0.28609777331331854, 0.1511315105160297, -0.005298280634483778, -0.1399662848421713, -0.23752759317611072, -0.18378190676841324, -0.1570957263666967, -0.06450405146318602, 0.0017527944994950096, -0.0023501444717544564, -0.00521380401217219, -0.029686390856998916, -0.12323074602838345, 0.011069074773288404, 0.16717102029504546, 0.5102937229654029, 0.35091144308445893, 0.13029386487613356, 0.29267834254762537, 0.03242027523582387, -0.18642361344664093, -0.14668796862341857, -0.1400413043894869, -0.017325817323800827, 0.15771254072517807, 0.42146568129329676, 0.28505433828087534, 0.2548754090816608, -0.2758187441209604, 0.007213437340514572, -0.09316992479755344, -0.2140434053623331, -0.11207588145452095, -0.11998229260388794, 0.04942909158269952, 0.03162193761387837, -0.01711947553163243, -0.009582975590566305, 0.004286460241605556, -0.03783533459416218, -0.19156843103291363, -0.04442968457711748, 0.02224448770644666, 0.0844862329553368, 0.0076552346681863755, 0.0494071611668461, 0.05356832363010702, 0.3610393320379439, 0.29573091963410214, 0.06365585533408459, 0.2592944343719029, 0.5040348830713969, 0.5422501786211351, 0.23276468277686546, 0.1377638053466625, -0.2376422397446645, -0.40246201297842743, 0.001292048598353786, 0.1239576709486689, -0.19583812151166727, -0.37458824414749736, -0.26429272892750516, 0.02095850190687392, 0.062134608705019356, 0.007871756908937825, -0.0012989864946818096, -0.010824710220608404, -0.024437320039013437, -0.20942305754383173, -0.0837194526906531, -0.1486322828559106, -0.12337613459925817, -0.052387989004496226, 0.07166459501582134, 0.22852111304227957, 0.25885440808388516, 0.7515828681098189, 0.6545529174079351, 0.42690398262731066, 0.31613569730654567, -0.26517644922502165, -0.2642209056122305, -0.4759038524604352, -0.31974379148189097, -0.14292607079272915, -0.18446444666611753, -0.1394461667269676, -0.49288017990509025, -0.6651770864670467, -0.3388278118741861, -0.011033867952285488, -0.0058732806901052904, 0.008367044969556705, 0.00013213318360436827, 0.0017788375459172597, -0.023495939350082297, -0.19832510396322126, -0.28206875360349754, -0.2944360959147537, -0.3299466108526167, -0.4682094232553509, -0.17274452270431997, -0.11779943469998744, 0.08804057898626934, 0.09075183346561273, -0.11593976253940452, -0.5467031098415308, -0.3219179678498095, -0.6990194214781984, -0.6898959585144775, -0.65484847930301, -0.5115459137982975, -0.47442386685093935, -0.6708204789904862, -0.5608178323212195, -0.5065369290232473, -0.4719618299848731, -0.12716745361540366, 0.0011432132226935766, -0.005712174143422728, 0.013121540686200056, 0.018113294714474298, -0.0009591965339423823, -0.042370316680596244, -0.2218869482170089, -0.23748423709671715, -0.23980436501337501, -0.39412963299863096, -0.3883600627826612, -0.712817086982541, -0.5154931515464211, -0.22312488232890046, -0.9246314327801032, -0.4000329126515032, -0.8641957956141108, -0.8217428492743456, -0.8929496910739171, -0.3986173613443945, -0.8335960608039545, -0.5619571175430133, -0.45661063378787786, -0.2599269493101518, -0.17406282756544691, -0.3879237321639954, -0.36024670558451954, -0.06821698362485047, -0.010161748837176007, -0.01925859249089678, 0.0087229998636674, 0.00010176343516073432, 0.0008458922403885394, -0.01944454381521708, -0.10320119503398023, -0.08210218523420641, -0.24170440619159403, -0.09322143802387368, -0.2873852945443879, -0.2933515555882864, -0.5316001271485292, -0.4146287778243974, -0.5311690844604938, -0.48837594550563457, -0.2998817037348773, -0.2098177590894162, -0.0940383031891034, -0.207657281859029, -0.23480947519007145, -0.29911845464543635, -0.39294579370334426, -0.12432088775638135, -0.3252084484944773, -0.3561489706278715, -0.3401443618391228, -0.0518114594824771, -0.026088569262222742, 0.006692165956349626, 0.007032609562029699, 0.010025377709281793, 0.006590325088782531, -0.028146357524180043, -0.06906769840550325, -0.015158121168220543, 0.012276149954784623, 0.08296489551986307, -0.061785559493056634, -0.23444155105126854, -0.19565998156382328, -0.27688429405275133, 0.03372498309520204, -0.16699004771332587, -0.41380323355364285, -0.2869644323756364, -0.46573518949688947, -0.37107658406236904, -0.23832841280037875, -0.44528718652512467, -0.26453465241889595, -0.234666211932636, -0.31936379242137425, -0.4414258865282964, -0.30931320197654566, -0.04402401102201056, -0.0013512739574811357, 0.008511093363417162, -0.00635290297113022, -0.001097938523428566, 0.01603803002577103, 0.030479376019671614, 0.011965341899000894, 0.0742348215885106, 0.1727470107578979, -0.10069828679434205, -0.15880722424308502, -0.1413306137281226, -0.26639219421629534, -0.27653807667156577, -0.3205195710123298, -0.5985383003079683, -0.4977973793632381, -0.46995083008095206, -0.40422461338394894, -0.6782816022562416, -0.3281465106727192, -0.4134669740553735, -0.5277854939499934, -0.12488807581397768, -0.13180088200965648, -0.19910278268882345, -0.0204489094987897, -0.03257953414506679, -0.01706406993240976, -0.003871689042611739, 0.0039949677437530135, -0.0019714935827111206, 0.00987898644534995, 0.003320133204371868, -0.010524581621107268, 0.03111255870860473, 0.029141719277625766, -0.2911526204283132, -0.27917355462989735, -0.17667012490363054, -0.10237382640729573, -0.4278896242569198, -0.16050614145604566, -0.10634231152899792, -0.26590334924733233, -0.01318481574825853, -0.319270019935343, -0.3212507143658898, -0.1989059543594889, -0.1846815006486633, -0.24549127909531832, -0.09178404468353381, -0.03172042760146446, -0.06618615240145674, -0.016662112676124927, -0.01872254765732319, -0.0029649674552116967, -0.018959619104002155, -0.006371196176635559, 0.006010132153054318, -0.0009743053086778715, -0.009507426507183711, -0.016887116493342763, 0.004701254511847157, -0.022429795168616286, 0.015232211862550736, 0.09182516827087787, 0.11080045580264439, 0.2724094853060011, 0.07938094300852408, -0.029779712217696864, 0.08027961120947388, -0.03602334295695346, 0.08717729591827258, 0.12082565759048819, 0.10777387917090592, 0.09244619223106755, 0.17699729103594486, 0.22908597108136974, 0.13907633887939208, 0.10786689292952255, 0.05094011384894625, -0.0019520006127006322, -0.000984280953999035, -0.005783685365424677, -0.0011824840000367106, -0.004654187477215327, 0.0131407014892305, 0.002184459066306052, -0.0014191648042103057, -0.013617156077419272, -0.0021382786394427917, -0.009326951067391932, 0.0009121201897951229, 0.015815024120336835, 0.000874265005525705, 0.010051325288823664, 0.012814644199375294, 0.019703283054704986, 0.015307544729493399, 0.03276289769633401, 0.06125629938572389, 0.01689542031201693, 0.03423905709107468, 0.03668960985983429, 0.030853809518751326, 0.010454936649312631, 0.0019451881230311905, 0.01065225551698602, 0.018270236805154966, 0.007528379143024401, -0.010045720646852207, 0.0017489841106967169, 0.0018491504362473637, 0.007090062804759503], [0.005037917592314143, -0.002425104624175419, 0.004820891526630594, -0.0004170042174052013, 0.00021365778025901372, -0.0020331880580282285, 0.005992923561900326, 0.014544188833400981, -0.0069039520317884, 0.0006761267458675108, 0.006278415644209792, -0.0031844018956419776, 0.007948109938024929, 0.017646562336313166, -0.01732741016864857, -0.006653634301416739, 0.010671652657303287, 0.0025341900352109582, -0.004552013353021632, 0.010128249634208695, -0.00035322897018393447, -0.0038876086058886564, 0.0033780101806279244, -0.012634593665952133, 0.00019496719182327563, -0.00032267342653693825, -0.0004942184240517506, 0.0012023503280983723, -0.0027330861724045217, -0.010824604110741112, 0.0011545977439953428, 0.00604621201823686, 0.0019437168265204357, -0.0017209571385441522, 0.023877413977749465, 0.049325119811527554, 0.029512878510790708, 0.004719140735841465, 0.020941101416380354, 0.00894634439805329, 0.02306958967780295, 0.022109900086432106, 0.04458980120619606, 0.04236726075735489, 0.018336827366873986, 0.016273222270400237, 0.006948124176493925, 0.019940603481426483, 0.017673007154036587, 0.011484476798742987, 0.00643803620060219, -0.006207780924100142, -0.007427463660293175, -0.008874063534851062, -0.004132403032742014, 0.003607987191356368, 0.0023908155442261005, -0.006923220368325225, 0.0030558799049741183, 0.004916061325137693, 0.00767252716096833, 0.003076658763985545, 0.017162974370419935, 0.07364586642708032, 0.09474413352245321, 0.056773797893588926, 0.08247489098020329, 0.08566255620149828, 0.17384884664376835, 0.21986993546865546, 0.14490544207602502, 0.2240733645524388, 0.17454253124777788, 0.10358022794685906, 0.07004673599703976, 0.1590636323948476, -0.0035918585337182196, -0.023077254168139747, 0.022004452558672564, 0.006953854520092867, 0.01480479353088747, -0.012611702804679721, -0.006859514687951839, 0.0010419962015547585, -0.008648039729285496, 0.0043775915333101375, 0.0006128749730170104, 0.00476845469563811, 0.010301208575561101, 0.02684057562558013, 0.10901353777542747, 0.07592265506438613, 0.1489715894343889, 0.14469307996016822, 0.13637532638609332, 0.07890783155295812, 0.26938960069798457, 0.46796628340940727, 0.15329921765159374, 0.09696698528732477, 0.06535856418475258, -0.08932652257978933, -0.00217453068403748, 0.03320291720744674, -0.05051211280360622, -0.08835462191313012, -0.01593205226489065, 0.036067546056063604, 0.02671756791628997, -0.002538242893883074, -0.015463670020988767, -0.0012344206430766264, 0.0015808119865463024, -0.00492727546420603, 0.004456276250766288, 0.0117095690757818, 0.031442767461079595, 0.008181024647753813, 0.001901645014739068, 0.034451045571845286, 0.12480765357938767, 0.04435992941023382, 0.019759232526420215, -0.1973097500465075, -0.08442563988499602, -0.18580185056683537, -0.09218429457409803, 0.09558874779209549, -0.024611579840593197, -0.17964535706179638, -0.09321380268836674, 0.06787001516128889, -0.08867591324447718, -0.19675387532389652, -0.09797889622334446, -0.027926642758396777, 0.0037107380554028593, -0.03461406143891075, -0.026778316165873617, -0.013711480053436602, 0.018645705684836443, -0.011117013788957375, 0.0024057779991537923, 0.01948436192484785, 0.04811534945835673, -0.025603187771028938, -0.07821222778792297, 0.11334398169279544, 0.0349754120981511, 0.010408810283360591, -0.15719681020243154, -0.18309937654868796, -0.13853164964760062, 0.11990232782257378, -0.13392963311689499, 0.22205012657553638, 0.0871344519935906, -0.08866235852036188, 0.07031136960430022, -0.028718956445926726, 0.09782070057505697, 0.15611909227436846, -0.052041637145356666, -0.005783327596701466, 0.06260383755247939, -0.08595845129564819, -0.008388489356744081, 0.0013942448250851697, 0.008125870033471578, 0.006737745085952467, 0.0006844116342531885, 0.006000536222404453, 0.08054262626384308, -0.01385626229606303, 0.0021322469974031245, -0.10817836887998718, -0.06358349480269072, 0.01531026398218534, -0.06373909548537877, -0.00385523273733521, -0.07666227516095361, 0.11256490903467962, 0.07853777176270701, -0.09686836478786608, -0.011083090383345469, -0.06515808660125258, 0.16560780731457628, -0.23536293850697157, -0.08321135582009485, -0.2010335693362622, -0.21915794960114024, -0.03101114222910411, 0.03317058145414858, -0.1080108954997912, -0.007794949408698465, -0.01608568971769645, 0.00972962471974045, -0.002544728244563321, -0.015800817358269725, -0.03031124715492447, 0.05606494786091086, -0.11852712610590478, -0.14145691137379993, -0.08483696518492015, -0.26333488429015484, -0.0860011337812241, -0.23394312169180312, -0.30953265887227255, -0.24633914793327708, -0.4390053832765956, 0.0766338738652372, -0.28496922259780716, -0.15997180177969747, -0.25255624351360706, -0.3253144672838056, -0.5544809742349105, -0.508945897895033, -0.37772003144984007, -0.21797803660125384, -0.24383368347721424, -0.34160080539562876, -0.32327077919298974, -0.005762942213740159, -0.012808590251064527, 0.006791700744043711, 0.004044266746832291, -0.020937895455149763, -0.02375680873547476, -0.004591117398111554, -0.233849953532117, -0.21648675550917632, -0.17402031660213022, -0.35561093881224115, -0.27729530561731475, -0.22850229253436152, -0.4101763827365371, -0.26797394072224506, -0.4458754042076855, -0.5566254660194699, -0.6182285093055908, -0.6679981074382073, -0.38205801045260523, -0.3094519891619621, -0.21940335529863866, -0.19564821358350404, -0.08350171583738548, -0.133612218851097, -0.3249915479462734, -0.25378102951557335, -0.1191227375519122, -0.01221836347331965, -0.011802842031317897, 0.006938176995972129, -0.011135312448188484, -0.021139171346527926, -0.0321390068448213, 0.001663457822778614, -0.16221998190376458, 0.024361447966474086, 0.24030324014568608, -0.04160338565633144, -0.3028012725366545, -0.4543312982953493, -0.3396244432219942, -0.3284343722934556, -0.5125340469012263, -0.2754694123316774, -0.04192343362980238, -0.1877276805902857, -0.39650544695854933, -0.25538227719830653, -0.18248317954872137, -0.1143298111452413, -0.2699481891979245, -0.10157388425543787, -0.11745094189344922, -0.008150222177677097, 0.05165487018071183, -0.007772235537645603, 0.009356361080066834, -0.00033949747415063555, 0.0097414213320058, -0.022085228945888387, 0.02802526340203834, 0.13305054696136234, 0.002397543985971625, -0.07779967322227174, -0.05640262988541591, 0.005414608304789729, -0.041491973166010096, -0.2970521981219095, -0.14848301591500462, -0.20226349999487017, 0.022994676569280247, 0.290555620303339, 0.5687953111260946, 0.39251672380215274, 0.21237302754120818, -0.18142342444673762, -0.08613508668822908, -0.22557436573834191, -0.1857585065455656, -0.035529268440362645, 0.06990355724746385, 0.13386081672954478, 0.177286848104861, -0.0067267594082239006, -0.005390107850278445, -0.006543259041087196, -0.013266320267100761, 0.029257398427835, 0.06275910824187933, 0.24205232971226937, 0.1368100465056548, -0.21822874681490048, -0.16127123691101147, -0.0030481385506149314, -0.22782190195785254, -0.028695659418956788, 0.14257971856250523, -0.20566049698260688, 0.2148062550851131, 0.4290821618848074, 0.7255670232849428, 0.414869592916109, 0.39080252847787617, 0.376561015056558, 0.22730227182389842, 0.20185344176473918, 0.12550070645248734, 0.0823563165086048, 0.17682228213617446, 0.1223459078572086, 0.05002516683587018, -0.0026820312772504254, -0.0019212927739027013, -0.006032635358763205, 0.008880187953501947, -0.0015442166821944727, 0.016405114168095918, 0.1344126210296916, -0.010263848871572029, -0.1993319809288284, 0.03690528935908756, -0.13353628656753683, -0.2529330893524388, 0.06174015408125174, -0.14407211046510746, -0.35948470147431305, 0.09123435693285599, 0.5607681147336491, 0.34805776563026886, 0.3350929294840442, 0.42150287360595684, 0.3846753539927527, 0.4811908885095729, 0.35625630944903, 0.06636744790821929, 0.16999417568924494, 0.28828724692870783, 0.006764111405386684, 0.0017002923489197054, -0.006269599917487328, 0.003882891476092763, -0.009337163692891594, -0.004987650370008869, 0.009842208213075234, 0.029825385415846856, 0.03636517152952851, 0.001726805643623141, -0.06166932453462602, -0.02128476746241563, -0.08685205841943833, -0.3269870688052447, -0.42858389574884886, -0.4901598005955747, -0.13462431727431878, -0.042633206304719354, 0.2497484442380632, -0.0037750829352092563, 0.3424595313892754, 0.055664945683368515, 0.14352646151077358, 0.4920655503755145, 0.3756059966455543, 0.36949232628240625, 0.26859300680864445, 0.20921746338626346, 0.20681989360539865, 0.02788754892645447, -0.04526021379559346, -0.02195461192048253, 0.010036192615820155, 0.0014403630648681125, 0.011907543848573393, 0.017050237009249753, -0.08109918310053779, -0.1394706986972496, -0.07204018201226481, -0.10737018513442682, -0.2969635462299404, -0.24258166049234453, -0.1930222210184307, 0.09208104945969955, 0.10060369751691735, -0.05611833389083785, -0.017703187044323224, -0.10613377034012415, 0.11437017025053169, -0.4453476254230318, 0.03399189346229642, 0.34227529902488685, 0.37496774894233603, 0.34454851091735034, 0.4245535673307981, 0.14938382272208445, 0.1844684747409891, 0.01588499620003555, -0.040551911019375234, -0.001069500135746135, -0.0033397463282825246, 2.9499183109324202e-05, 0.015618129288849777, -0.02891031974444996, -0.17122403526200422, -0.14265819543528235, 0.06143919699892981, -0.05966058646068002, -0.25008100365871316, -0.150455003281407, -0.20851417065573374, -0.1022324463498052, -0.07732538930078232, 0.05897061504911561, -0.07531840905917009, -0.21163740204324036, -0.07379332726928185, -0.3540494208116826, -0.08517333593226516, 0.13084702064941925, 0.350042566572357, 0.2371470593549113, 0.24115314878367475, 0.1734565780584182, 0.059056825690554884, -0.05042491900855763, -0.09873931820380343, -0.007419866579368809, -0.008673169177418305, 0.0016136240517994056, 0.0006975054014746403, -0.01148294858046011, -0.04020960358504143, 0.06059288262438974, 0.1215144709024344, -0.10686532075391067, -0.235702259418949, -0.37090427649634583, -0.202483360073091, 0.06176447665388665, -0.34215992371071285, -0.08711344339017522, -0.04722800110953885, 0.07823876403642914, -0.15584109277222474, -0.06313219197060298, 0.20113599154982775, 0.06406500531254572, 0.21681978160527177, 0.15125610009626833, 0.16730941145805706, -0.12787830083030693, -0.11768649938738142, -0.08173768037321437, -0.05715785248585215, -0.0049333916255397915, -0.01399104759733059, -0.0016635593519720362, -0.023217611916681744, 0.053927986893347254, 0.040691158880017876, 0.17714672134255113, 0.263765347186359, -0.04082474323490975, -0.0022939206779581415, -0.17751875817259263, 0.2755357679861408, 0.11702215470681697, -0.051401726719744335, -0.20210833562191216, -0.07826596968122453, -0.01493938610717907, -0.07493248765273107, -0.021971479949877557, -0.1066120256432074, 0.11586051884708556, 0.09168478685460248, -0.011651004178560232, -0.03518915990928084, 0.005185777933223485, 0.05424345894082974, -0.06582663985718777, 0.005689787746715449, -0.0062011233769680724, 0.009630152916521344, -0.009121435676339731, -0.017955566515013333, 0.1052111620576769, -0.011969354341190369, 0.002730495559264929, -0.17409400581057466, -0.24517195120458402, 0.30135626734810167, 0.14049479734793566, 0.14498368345682489, -0.015043802877682384, 0.1497636268440883, 0.12335966715533044, 0.19530190078597467, 0.20453689483014884, -0.027349241550787856, -0.2052723430277126, -0.20462834801561827, -0.16320735346541299, -0.14431882943928817, -0.15793641440031903, -0.29155017531094035, -0.005592187343448304, 0.08524142619655802, -0.0011238307936247223, 0.03704457585721077, 0.03181589016325652, -0.0015350816097267107, -0.018142516100366927, 0.00039659592479610706, 0.10181220869479271, 0.024344050907305247, -0.054248345429825304, -0.10454262825663596, -0.10794042052498276, 0.10475144803773598, 0.26712153904533836, 0.11217292485723092, 0.12462558865635212, 0.10923688476544252, 0.25905376808845004, 0.3305284097502588, 0.15012105150331373, 0.17314370901159457, -0.10307313892678675, -0.1268167753617058, -0.17995564983615342, -0.23602652982232072, -0.266861591811089, -0.1728244471357499, 0.0015206022834622543, 0.06233893585317831, -0.0008010611726206535, 0.0450539628020158, 0.0050277037543869875, -0.009816183350153065, 0.004808138297912506, -0.036968104597266814, -0.05241642558332411, -0.0903075239611276, 0.02577962717004621, 0.019506709658105262, -0.03610058823023871, 0.13079830442629414, 0.24842543023492747, 0.22143240781138895, 0.0498023929192549, 0.03953421132285435, 0.04329027224754847, 0.4258996829454959, -0.00014797743442963033, 0.04608374246025227, -0.14478669457205556, -0.020600450378536417, -0.25132147021807344, -0.22372440457360357, -0.03231052749256535, -0.13124038557637233, -0.12181204305445362, -0.05443043888774671, -0.031497532764908694, 0.05808338154628715, -0.00988768118954589, -0.008851202483991922, -0.014826550448203994, -0.08321814819650758, -0.13450601257632597, -0.177163160910569, -0.02456927462636115, 0.09267351740310785, 0.12344563048622609, 0.10635820825817391, 0.2176075044171267, 0.4441076852357592, 0.375836153429083, 0.35029775714266087, 0.1449010712674347, 0.2318581057594575, 0.1094332723796276, -0.030472989694766382, -0.004842926585193189, -0.09833499976420607, -0.1756972592987657, -0.019285028337722863, -0.22115283349028575, -0.277190198466438, -0.24410774738335997, -0.12449006188507805, -0.030433093513376704, 0.0004000940545469921, 0.014672853583707896, -2.605377565208181e-06, -0.01050009152684993, -0.049165768729053184, -0.07425370082080764, -0.09502725190996954, 0.09391345953729385, -0.011397175329162401, -0.04909548670398931, -0.21199608102857675, 0.1653829996767654, 0.03822340735437479, -0.21855756451345057, -0.16591474098359624, 0.03749401295345584, -0.05136880825419171, 0.0277066842352116, 0.09745808692299977, -0.058353065713422726, -0.18870953663333812, -0.11804113523380867, -0.14170555245874883, -0.27358489441404554, -0.20149019600463428, -0.2042543190005014, -0.10053118111484732, -0.020506578902938808, 0.007042660500998664, -8.984826470509703e-05, -0.0081104703171524, 0.00039748403616750224, 0.007138299013977058, -0.022751100149657446, 0.11352001125707625, 0.25965995497225697, 0.15120979718278643, -0.10494591044097962, -0.1770383843809536, -0.1119908125158666, -0.1675896680908868, -0.31597692380160175, -0.19312478342745332, -0.2313886486344823, -0.489653808489004, -0.20272753963080883, -0.09979362835963934, -0.1009998645947208, -0.24701498089314158, -0.11848992280384801, -0.1793432400307186, -0.2291720864768593, -0.11019588213935783, -0.07238081194199464, -0.029153526529770504, -0.006125941069294423, 0.013684349928337327, -0.0017662670763658624, 5.633310701764777e-05, 0.017487273060343384, 0.006356623737743222, -0.002549729010288191, 0.03040785019327124, 0.1116699572374877, 0.08225629180184703, -0.010019823021722968, -0.10444926513071945, -0.07769801358357042, -0.11999518648859364, -0.41000804286328607, -0.4035977478677345, -0.34487786524476505, -0.31309413191804686, -0.25565258478356556, -0.1045608392681993, -0.02718328996488667, -0.16764403692223662, -0.07702100047820806, -0.17226563458543534, -0.23946742201726004, -0.12012827848974186, -0.023388689599026315, -0.002167341879634909, -0.001736335411668427, -0.008571619751174995, 0.004153510381316352, 0.011413758390068522, 0.016386208008977828, -0.004068895168894823, 0.005027888134984585, -0.024318161479306752, -0.024264808448906272, -0.046711342543275, -0.047512004720245055, 0.019012403399614585, -0.08854212228559029, -0.2885732711689874, -0.2957039086934805, -0.044309268399951765, -0.16120951875177855, -0.22234598471308592, -0.4064016284261939, -0.20419946479200954, -0.08407207735848385, -0.06341944314170929, 0.04640047525210637, 0.05427532406959054, -0.03523627788612492, -0.022027008570308856, -0.003994305246891319, -0.0153797674316296, -0.001288492593787064, 0.00246787574019391, -0.0044291719918112685, 0.010544566832080554, -0.0002904873942530406, -0.0007351756146933745, 0.002805539688882211, 0.0024468826997961334, -0.0019262659663099892, -0.028612274704821878, -0.004837450505760417, -0.031139306649820175, -0.03233068763633464, -0.031210321024982127, -0.02180133440198136, -0.010656797875768951, 0.0009421667434463382, -0.01499793095674726, -0.023706975142457398, -0.061753383539560155, -0.04362628977396907, -0.06858765662666472, 0.006994413991297303, 0.022379873013542804, -0.02044292924314755, -0.004334924405886011, -0.000795877717573046, 0.008534208088932007, 0.002981151552612064, -0.014630440198833201, 0.004831123050119378, -0.000714292914835379, 0.011544091348969793, -0.008783787997979381, 0.005157738485710629, 0.002968493968284741, -0.004829746617430459, -0.003986685340181777, -0.007419226294778687, 0.0055413051976491825, -0.004217540729570942, -0.025272150145067035, -0.002416915943112931, -0.006279287124716011, 0.007408608212921085, -0.00250954071512985, -0.001100035027524128, 0.012587008730777815, -0.012853398060748937, -0.01196951158620104, -0.019055042556124106, -0.009643850463826794, -0.01211460925287337, -0.013741715789551063, -0.0028668371282302312, -0.007570666627970472, 0.008820714778282482, 0.0188273865990715, 0.007856746386120163], [0.005786954635215745, 0.008412348643487257, -0.019065778780431353, -0.0004656106357304001, 0.010116377648677542, 0.010934632242164198, 0.005379326622712177, -0.0011324914679848466, -0.013258959818316218, 0.004538354005948481, -0.00837414651179132, 0.023935842401075623, -0.0013384258239406883, 0.0013018798032284908, 0.009652229925255875, -0.0029029795086480794, -0.008765701421612052, 0.0029485534998182237, -0.0003112299427814644, -0.0019403761062043658, -0.006067726065738566, -0.008886478384072376, -0.003023827776762985, -0.007167976103026846, 0.003082296170898036, 0.01073876445450182, -0.004347527223778476, 0.0031906573399770486, 0.0045926277026052485, -0.006898249642011694, 0.0016888519226111707, 0.008149263259365732, 0.002846874004370817, -0.010202482215352467, 0.0031873921168440417, 0.0012089717984462957, -0.006131411946844675, -0.007900097804654145, -0.0036984242199597545, 6.268256182920083e-05, 0.01214601443608421, 0.004600327359657068, 0.006215887040989211, 0.017779715446933655, 0.03629270165501871, 0.012719135597814398, 0.006544326868781222, 0.0012347251858566505, -0.0109265873509263, -0.01942388974525877, 0.00861353278118705, 0.012356981027615748, 0.0035446848901058764, -0.014935879750561562, 0.005495543214599564, 0.010560626143569243, -0.011096096422994958, -0.004782464637832257, -0.01239716249754457, 0.0015634463842120183, 0.018943617788712713, 0.0019179321795620408, -0.009339576541696287, 0.012928647156921293, -0.012121567402733882, -0.006391260084025093, -0.006901696772024069, -0.011315140035351189, -0.004191801791130439, 0.04235542977575463, 0.018035769136088117, -0.027141186468151415, 0.0023405310714973713, -0.04610906608793096, -0.03445766763066253, -0.10169276959025185, -0.017375865499847695, -0.010311350155140297, -0.008543364334146559, -0.018989409503779198, 0.008684005955376564, 0.00447166897082402, -0.00926104337245007, 0.010163258342119908, -5.7821280895969564e-05, 0.0010588173803909107, -0.005773648655984396, 0.016604141125548297, -0.013511296735824968, -0.01752076385511061, -0.017537400632837805, 0.004141681129767966, 0.001356109042959586, 0.023296407523337948, 0.03205928496273081, -0.008640305544779167, -0.059607922761692994, 0.12917314573120006, 0.30999513297082965, 0.14943567798183766, 0.15097536769080883, 0.19328112663595703, -0.06406393968142744, -0.17394794224049281, -0.03265058071746779, -0.06242125784352173, -0.06647872538712696, -0.021572501616358375, 0.013010171969256603, -0.013553002367742081, -0.013469374544625297, -0.0021261348552541245, -0.009640295430461587, -0.002422705446010378, 0.008338784996091978, 0.010483646608717766, -0.01304200443079556, -0.017278353853252843, 0.012755729707537695, 0.04673503041021713, -0.0388543854704459, -0.04757629621944741, -0.06664414564297413, 0.16730886287964047, 0.22940377208618126, 0.318199709450067, 0.415499898436945, 0.6300754699746342, 0.27616974727507054, 0.1819954321042317, 0.10163741282017899, -0.020526936960544712, -0.13566785009206928, -0.10817993876027918, -0.024320774078081635, -0.07349259206005133, -0.09932762909733711, -0.04010062578925833, -0.005253944729354247, 0.011964151310130303, 0.006723550601840061, 0.011833853684830954, 0.008720278273738124, 0.0001210121638218375, -0.01980972654608687, -0.04004652512447209, 0.008543907457709271, -0.1522135046011264, -0.1576028550203104, 0.04051348555966584, 0.19219644181999532, 0.27592854227843566, 0.36242539105949595, 0.49179863538146756, 0.4617418135073204, 0.5084158426360665, 0.27055337142360897, 0.09786789111300014, 0.031075958799056235, 0.06439746914568945, -0.14236596541911808, -0.11857050995115218, -0.1315228958068849, -0.3256752649102323, -0.23361729134656944, -0.02302311261909056, 0.011454586711490333, 0.0019137319064658862, -0.013254614037357783, 0.0015366525871752738, -0.010733219034590022, 0.007946832268523205, -0.03958798383466397, -0.03346075485251766, -0.06625547042677542, -0.23513916143087688, -0.19073600900673976, -0.015910566499490065, 0.18523934512652032, 0.21210503484837614, 0.08237868363310248, 0.41587255778474774, 0.38322974612176325, 0.5890336133110164, 0.6610751293115908, 0.34599157977105227, 0.48673939292787255, 0.06453789447198205, 0.05892568916025811, 0.2293089847947006, -0.03896326362596937, -0.2997005929391167, -0.341292752359624, -0.09090429796250399, -0.06834854067903079, -0.029738518695661718, 0.0036006336589664402, -0.0014184580789528467, 0.019060502347035733, -0.007044394632765402, -0.13283606883045976, -0.2124082414897869, -0.2060792562843709, -0.21015734510071266, 0.05641339386063587, -0.12347622198776187, 0.10046466960777933, 0.02332306840621019, 0.014760419812240138, 0.19085350022610598, -0.013548041062256759, 0.4976176243257886, 0.9091413037139222, 0.8050436769431659, 0.7440336289148863, 0.4859186783076845, 0.28797350682491796, 0.22445172601968405, 0.10097733368697684, -0.11691401897874756, -0.17244931782987952, -0.06976845675292988, -0.08451469770021089, -0.019218930680208378, -0.00785800746589774, -0.0027313771005896045, 0.003742637773591897, -0.040685546003501306, -0.21085942319774045, -0.31457963423008906, -0.11838507318634066, -0.08861153847348942, 0.08278573232473654, -0.2292978324918417, -0.2772054850888413, -0.2035264292816227, -0.2432652486776129, -0.3937820258057901, -0.315298255800472, -0.0039102067785863675, 0.8111873236978044, 0.6471486159980167, 0.6127660053669093, 0.2779608091711967, 0.38961412502894915, 0.3808519928805767, 0.35189881871507156, 0.11317365292697358, -0.2867556753270312, -0.1443733126807961, -0.056964840554298304, -0.0013469055654095196, 0.006032820044335036, -0.019505121076112124, -0.017708026188830682, -0.06974990128588414, -0.16692944341169472, -0.207651992876248, -0.17896726945718314, -0.2085461502902232, -0.20871458326253353, -0.3839274011063843, -0.28953079995188874, -0.41292490881141897, -0.18700401161143734, -0.35941234348994416, -0.5925280698558697, -0.33389169825751125, -0.00455496052240529, 0.18307164147881536, 0.02755040983112394, 0.4515723312681967, 0.40570595413469834, 0.059528270237741855, 0.25993694078510826, 0.16377840357635012, -0.11342945912380573, -0.14497695892745108, -0.017542819078556354, 0.0073818343266262515, -0.010595738097546705, -0.00415404721055565, -0.0013441008354053683, -0.04749878885656875, -0.23161277372018627, -0.16919091793767216, -0.2906887703210214, -0.34462807757390496, -0.1852931874090979, -0.2588067599483833, -0.3955502456376423, -0.11237593171966104, 0.05631717398555763, -0.1843859974290665, -0.22617973000109842, -0.47903780572316906, -0.2941044468565907, -0.0626138298538835, 0.1640016975791318, 0.09085355877977085, 0.2925438506698679, 0.31214845045508544, 0.4393380737736195, 0.40140767162767527, -0.004444495778803329, -0.15573337263257678, -0.03242795931724219, -0.004994337451844223, 0.004098528461952535, -0.005307259854034995, -0.001849438892018782, -0.04499429414091384, -0.19731032242204585, -0.32249280499218436, -0.4078369401713613, -0.0616717997965473, 0.14687750572978928, -0.15027463880619876, -0.2813014640843483, -0.019069698185307286, -0.03603984388495057, 0.023863552948092934, -0.06050423555076822, -0.5056960797280148, -0.561801890481642, -0.11314584819587799, 0.08002147490033316, 0.08643750487004438, 0.25566555671703944, 0.16593791567587937, 0.4323398575905426, 0.4139777750150702, 0.1892699606452938, -0.02415835594736451, -0.025979574679989684, -0.003591589787060031, -0.0077048298357064735, -0.014027249428226304, -0.01852785904760625, 0.0002311621427185149, -0.13587238215870737, -0.14706310221814917, -0.08563381386737369, -0.12079783919181111, 0.04330845429868436, -0.01620216500104644, 0.11649024642554741, -0.09714064390279009, -0.05776501448187959, -0.21828424077981548, -0.343653506317311, -0.4590477359024842, -0.24914088346562063, -0.007734685356249379, 0.15716779324575333, 0.41128182687565756, 0.09824408670648904, 0.13686768896674298, 0.31051573659267545, 0.15682767670768452, -0.021061476755317197, -0.02272622563022486, -0.01729398135402305, -0.0036589385063779067, -0.005456931535075602, -0.011347736811352429, -0.013369845347522055, 0.0256755887293356, -0.019493559223769275, 0.06726910140375071, 0.06682511836080311, -0.0763889911907925, 0.11021193071647288, 0.01762096502226519, 0.20247265654952704, -0.09648417099699338, -0.33405759047161604, -0.3109416204463855, -0.3584890756958642, -0.043534853436254885, -0.06236188252889338, 0.1331382235858291, 0.025336171701682793, 0.16622696478804763, -0.1627214063599689, 0.1030361252962868, 0.12389072305251095, -0.12218131231621011, -0.1325518368063457, -0.11936698428720906, -0.025557007817375764, -0.0021952418492117366, 0.0020729270192620516, -0.01300245785408927, -0.019451217544735788, 0.015197357787567622, -0.0033827670449537743, 0.1585757706471085, 0.14278042960808343, 0.06185766402173382, -0.08350460517513013, -0.017793480203911194, -0.037442223446525785, -0.18755988114688008, 0.06373290797815587, 0.063230402995363, -0.06248113629559561, 0.24092346716361585, 0.012712729326874214, 0.051408743503631206, -0.21849298175153198, 0.10093050097111073, 0.21373174936096068, 0.1554450666546507, 0.12735653679354905, -0.19130628415584153, -0.13735644720783655, -0.10866504153175767, -0.007228728228182342, 0.011346101390198165, -0.004209270553124022, -0.010461780485530803, -0.025452124700906856, 0.0011462976280296995, 0.11198795660377588, 0.22390931994112584, 0.009059322701417606, -0.09096958668252185, -0.09570341673578099, 0.017338396178794208, 0.09743732333412203, -0.1720926547577377, -0.19111585878675244, -0.1837064686664247, -0.23186670545166016, 0.12887544553116514, 0.028347883918327727, -0.18317616469136316, 0.00119830328972632, -0.0790604836739342, -0.038558218556666045, -0.03854805351237043, 0.047503659035098476, -0.05427804847288854, -0.11219403177224156, -0.0898264428582368, 0.012652972943190585, 0.0030212949998982674, 0.0004713757585322829, -0.006119437653519878, -0.03854304073012173, -0.007047691810572482, 0.15618941737218028, 0.144463169061822, 0.028629483453995054, -0.22937161652962898, -0.1639833836864984, 0.07718504941600707, 0.1676580306876428, -0.2993480629541535, -0.12501899780907713, -0.387346306754785, -0.4714841122999084, -0.10434374178111085, 0.05770125819445329, -0.14300263263387958, 0.027329086564538745, -0.42893546963056955, -0.3226964993243562, -0.15427741476168363, 0.10053942981255659, -0.11171812841525472, -0.16376741067874834, -0.041982485811534236, -0.02384801729051944, -6.884553285339517e-05, 0.011605320519844687, -0.01749072802266017, -0.045925056727439184, -0.013072911285245932, 0.03647390685757797, 0.10363308823822531, -0.02997026364087258, -0.0463235336098873, 0.10531831404609054, 0.02080274862418051, 0.036542328240375566, -0.005422199466289982, 0.05947046469877426, -0.2109784521908959, -0.20087234485204172, -0.11153169687355557, 0.08817623451344375, -0.13874720460844028, -0.21487024872153612, -0.4921798178037695, -0.4379007978555488, -0.07900886452681317, -0.014523695984108586, -0.13755319293311383, -0.0804105667975303, -0.010294145087577316, -0.01820987480504593, 0.00985119866914633, -0.00855710644424239, 0.0030540389548002864, -0.030131374131154545, -0.11317423153636638, -0.0337140995026466, -0.05470813668638506, 0.06334611768663614, -0.012199251925443074, 0.29211302804786476, 0.05419544432856343, 0.17559491798809293, -0.0033468069936507944, -0.3967561349997805, -0.4634367646576823, -0.13687474402393765, -0.11132443010829139, -0.09347049202887639, -0.01577288073221945, -0.24473805744876873, -0.6213232280128872, -0.23626763642005036, -0.18003162285123378, 0.03700444580599715, 0.03521823532458282, 0.07072492622575319, 0.02199295119580072, 0.003563790103074774, 0.011319466310829569, -0.006062616484307819, 0.013309612357230464, -0.04121705322332647, -0.1384088334638735, -0.11430890545671252, 0.06776440744134635, 0.09427372436351561, -0.0604003031326248, 0.028015091853053654, -0.01137890465299841, 0.21326218212126366, -0.1346943015314084, 0.1733937959097151, -0.04521526209073297, -0.1445394775892926, 0.02220524095191487, -0.1373598709685556, -0.05434052784139315, -0.09606508791898512, 0.01464847466765556, -0.1434157255823765, -0.17861729006905178, -0.11866773838575372, 0.07438361078572236, 0.07418470437084516, -0.02123948133131982, -0.016595191857676137, -0.005071765016798547, -0.008679454839564778, -0.0042529534765211735, -0.03846639201300618, -0.09103779168834857, -0.03570821402298136, 0.24020106088474655, 0.13977093038485217, -0.05577167539238323, -0.13762473246517262, -0.06148336616527566, 0.11232656772247214, 0.07621749162097877, 0.08054845222182966, 0.2978556534425053, -0.15624947217547858, 0.03579225567279374, 0.11425907367834691, 0.05636862264394852, -0.01618850644778008, -0.14555148058394937, -0.47456865641204465, -0.2639568120114445, -0.20912387019843476, 0.05362414750048781, 0.05022638683772333, -0.029793275128730538, -0.036507795667426915, -0.0037747821667019313, 0.0057103960680309, -0.004919123073371491, -0.0061249249965697975, -0.023828131934474892, -0.046007421816959444, 0.04592145752774923, 0.052827983326231544, -0.019272906740872762, -0.3693024793834282, -0.06285297168115206, 0.1633632623769491, 0.0068821646379923565, 0.1449483161635782, 0.1990877143323686, -0.009564627053919084, 0.026474078808211825, 0.055963033436693954, -0.06719116565037343, -0.1901741202129546, -0.3223634321166127, -0.28529380943322774, -0.1514223891826351, -0.0604989825746149, 0.09054595600984591, 0.061609214947801444, -0.041669845397564395, 0.006288005727233667, -0.01155445600665587, -0.012709618590672062, 0.006534987082549697, -0.008381739719214992, -0.0007512269851806631, -0.04658286478580895, -0.0481268819057966, 0.17869074634273574, 0.19013539054173947, 0.17008206386178407, -0.016631100128504765, 0.19702618007660247, -0.2213124062343621, 0.08272426485645033, 0.11219805242269398, -0.012191416445157349, 0.07454892374177205, -0.1382776431384408, -0.2277199877756544, -0.17423260863579454, -0.08818110775827002, -0.2798605227453777, -0.34080534109447447, -0.040632271952562776, 0.04872556136766341, 0.06387975909069032, -0.04241558350411415, -0.010567979922844011, -0.00538402912992595, -0.0024551180076889953, 0.002823743786424593, -0.00794700116980495, 0.029683998817115784, -0.0730136552088586, -0.09095284807087016, 0.041192043790704805, 0.1644151972994523, 0.19639827501771917, 0.018361900040093537, 0.018564491626072644, 0.08595451114620403, 0.16437402215750604, 0.20481798151288044, 0.02520282380561817, 0.04633998014194137, -0.2213790887296778, 0.06721433133371749, -0.12516826153998223, -0.1037277038691731, -0.36797446611023715, -0.28053413942749533, -0.010002311900160234, -0.008479890650589513, 0.04406975154570471, -0.030983093968538215, -0.01153560700386483, 