-0.006718529671896684
-0.014128748664274417
0.00137781334088117
0.002917796926183782
-0.00754686149103982
0.0030164238313164014
-0.016608412453410038
0.0009221059106473569
0.005645710419215135
-0.0032988190095195494
0.0013581671657151048
0.008080265429687135
0.0017625504352390383
0.013192763791887928
0.004801179501128256
0.0016615771202789483
0.002453164867050832
-0.0055152845692831125
-0.0017277549563104358
0.003812409182482885
0.007046547895038453
2.856579794234746e-05
-0.009544514223915695
0.0031792305016575205
0.0065554740216406445
-0.00811280955374115
-0.006905890472629633
0.01869161017417433
0.006875467932389761
0.016056716365439136
-0.015613877201542357
0.006515119005716045
-0.005787637986108659
-0.012154703521869831
-0.0043603979579122775
-0.0044586945993354945
0.006959556599634243
-0.018148944073026564
-0.01159747760901695
0.013876586728112488
-0.00424225062981379
-0.00824329309514169
-0.020669908005968577
-0.0031390317706840583
0.0649824631081392
0.022914508752052403
-0.005302417344458052
-0.0021454691366775075
-0.009447349758565638
-0.003560115045477232
-0.004178070051184808
0.003713656132207381
0.00821444249284315
0.0041546749635774155
-0.003184479655321754
-0.011084722336371545
0.0007475584660225224
-0.002847346935019631
-0.011125288138364067
0.005108153766093727
-0.010654005583527523
0.005862110285794866
-0.010171652366410575
-0.0035959814766454734
-0.0038662454344448676
-0.020272329275197988
-0.011539698376570146
-0.045446122368793564
-0.004122711239096063
-0.04884985764602105
-0.13790567507848916
-0.1604166438690853
-0.025386191423482113
0.011380293111735731
0.056475519699554534
0.008500635600147601
-0.024983736427471866
-0.03372609438180348
-0.006729753895632522
-0.006863091221052686
-0.0005053996017189806
-0.00040487028181721013
0.007176826016071626
-0.010150494002222933
-0.004178099285305814
0.004059364114886695
-0.008943405485501812
0.009037929742410716
0.0055524736588003065
0.0024066625349360234
-0.006222956021705065
-0.0035811191508733275
0.036340624826519764
-0.04734509317969975
-0.008234068070230131
0.05220881325576852
0.04631177001397395
-0.15033327228344717
-0.2960757784841206
-0.17970605827626573
-0.09042497528346703
0.0742789118871291
0.006309821141423658
-0.08656645334532234
0.06344658556622934
-0.08798005855469081
-0.04340655548353951
0.01978162331764331
0.039863729194580845
-0.005445357190373577
-0.0007906082430755805
0.009786151163644247
-0.01486012902579124
-0.0012215315439140916
0.002797621511518512
-0.02018564853510126
-0.01280960882443398
0.012917800166954896
-0.015382461097493468
-0.004600424313687499
-0.06471511763444908
-0.030744279934499175
0.12095233870678787
0.16177218805058463
0.07231100724638338
0.1539212269714949
0.23209869581365244
0.2246197816545856
0.10732910843620308
0.12493810910597483
0.14273984383899851
0.09520511850457761
0.021045378963031602
0.12263670926710099
0.03284268695364039
-0.0011604519231317677
0.04164634312100835
0.011379575526529986
0.014568941982583312
-0.014573621137063284
-0.006480656362828442
0.0021642561277489675
-0.007572109682884881
0.010109479427944027
-0.019199376577501953
-0.028353501123163028
0.03335018171876643
0.064815108823689
-0.2223957623667162
-0.10383510826298513
0.10557435683563496
0.37902139549135805
0.15293507992840663
0.07668633006955645
0.10096850703402942
-0.1896614036783861
0.2235420028338976
0.2943570677763954
0.2568853475989942
0.3459775609742247
0.25828637027222945
0.2749155420139657
0.2528536313297393
0.089809064995349
0.086275880493545
0.052148191958113224
0.04158389378859173
-0.006614765206430942
0.0023527167999042
-0.003050341681281896
-0.007925410945210489
0.016844167064039666
0.09299047091975746
0.02894493637293163
0.03859642285176352
0.19145330847044362
0.1401566224955622
0.28454616529924925
0.3178524135081307
0.09420641515930794
-0.03749649076737811
0.09385584858441418
-0.07608042289882108
-0.13542667068419728
0.13909753493522764
0.16448477791511606
-0.007919518144418259
0.13068204909669767
0.1448928314921714
0.1288292632975856
0.34334806059083484
0.29858542189313136
0.3148183186109805
0.17748969945826706
0.06914602254177502
-0.001762898721659132
-0.009794761252208496
0.01791092745050076
0.001601038325048615
0.09184785267192053
-0.009313777055097252
-0.025789612207941903
-0.1813646082849771
-0.004666785782573231
0.18373302296042168
0.11265181936034432
0.23762120414968477
0.08645205910498613
-0.09532474492346739
0.0285918359276975
0.06063234031478477
0.025847842034791395
0.10780730024563166
0.17379284961773
0.2246877896510431
0.03178845013843609
-0.014185159331600836
0.042701005378386794
0.0665288429779978
0.11745508131290919
0.2167444409877282
0.13463781210560194
0.03466514265768448
0.008359248366644282
0.0008738779538030708
-0.004342868416682824
-0.016034182670999392
0.007870679608709356
-0.0807120697510591
-0.015506799278333854
-0.17196018069088184
0.24841916110769785
0.1551730165125019
0.1259939369765793
0.10627567438077178
0.012124824825864463
0.30854472617440853
0.1311271128272565
0.02653561318929306
0.24085255830219718
0.4380315093085857
0.4003666506814717
-0.10759279257849896
0.11144381506185264
-0.009320978055948668
-0.03343668396311714
0.18442133632362384
-0.01839409522813126
-0.025321100127020085
0.11695109917398808
0.07650714170071646
0.05776298826505613
0.002374379766797497
-0.009839699577319321
-0.030269335991989884
-0.04073726378321727
-0.011064071744264626
-0.010656226227579065
-0.1193002325964159
0.43263821670078617
0.29470123283093724
0.1760545431602413
-0.06361327282770259
-0.13726728972325244
-0.1763814446429527
-0.0123085337731899
0.2910602684571927
0.04946020472661926
0.32767394517680204
0.06339055305777062
0.11054717385099715
0.15360294471814012
0.06306525862408738
-0.1818889755481298
-0.06005188360701884
0.06054655207241677
0.13448614440674972
0.19761042279912508
0.06142742609681778
-0.0012779432433153058
-0.005920104150652479
-0.014568261757612125
0.025153836047418367
0.05797246304088322
0.13828350430952002
-0.09699293578755913
-0.1886409023947531
-0.15381344566519942
0.24654397036307382
-0.061027078428705514
0.4008411342348034
-0.006879915217764791
-0.020490673254890557
0.1505913346094191
0.2794610012829936
0.26799858808914606
0.1673594524402678
-0.15791707795680135
0.15706239310859726
-0.14347714111314747
0.2274275360171503
0.14248076795431494
0.15704900249384873
0.08676074131346467
0.2777968008345273
0.1548382751386853
0.06693065800922494
-0.00590028211283768
0.003112450735306823
-0.0016196121316476477
-0.014927858818789594
0.002534275245556692
0.014476110114286863
-0.0007687357030359127
-0.3504780287351852
-0.3275517720180662
0.11176421543733553
-0.012953380862155512
0.04233902193462698
-0.2922302356644749
-0.12506884829163878
0.1708765476461518
0.18970421390178724
-0.054111454997070825
-0.09516583419313225
-0.34718188710150366
0.06406705154722726
-0.09307675088770519
-0.28807500589918633
0.02583734250265851
0.21848070521074528
0.36605203911736994
0.45187760032661234
0.26436566366542974
0.12161730163756679
-0.00039404392076613733
0.006450938122831413
-0.012492163636536229
-0.021533772848330444
-0.051401927115867246
-0.24538054020424138
-0.19429332448668618
0.002837820173421862
0.16714502181859456
-0.17894413382205132
-0.04920007700870975
0.06098941432464865
-0.4327351597884492
0.07602834501503615
0.34001531545653696
0.34524650166306164
-0.09650827931181484
-0.01533163525573266
-0.1502272590196801
-0.33490877179756423
-0.2616385203725849
-0.007604011503917368
-0.010589667351222984
0.024369130387643
0.15510632810128064
0.4049570839394619
0.27592983032629814
0.0672413138523872
-0.015197476761122077
-0.0022431571926073085
0.00884593152873351
-0.014192305460640025
0.040292218712195106
-0.34807026964882926
-0.15767840136191455
0.07635755248798595
-0.06975980608354473
-0.07666780064804261
-0.08946535226216866
-0.16400157105295374
-0.03436168100261231
-0.0020924726393135675
0.4389038044559983
0.007949291691236779
-0.11511060064700118
-0.03851168554979242
-0.2758405929723605
-0.09674244686437325
-0.08980824866050402
-0.1633630304631549
-0.45405669626913964
-0.15230488519621416
0.05638388898417147
0.24027275220479777
0.1923475756105655
0.07429444750281931
0.010169808175625935
0.022975355764415187
0.011826902544843556
-0.005166550099957096
0.04858473076661887
-0.2443133318659712
-0.2078106609287994
-0.14822177680120965
-0.3159107440573467
-0.3591259900919819
-0.09687471055317902
-0.022583410776811308
0.07315584697412292
0.30639533719452944
0.2357105108541113
-0.19211546452692063
-0.13939162897255655
-0.4280210973784034
-0.1334208121300779
-0.28700632157537304
-0.06642641006729334
-0.5759336045950955
-0.406197442621378
-0.43847057578443416
0.07448597906671106
0.3094231868361415
0.05720027690132142
0.04615045544177253
-0.0038608403862799893
0.006405215929902746
-0.002596605478625767
0.025757067199127133
-0.04267774417683738
0.035240911365906104
0.01967832296925219
-0.2428165952047759
-0.14693072824967546
-0.2611828937048517
0.017414599705968696
-0.20995532437675643
-0.14134723277484648
0.5893755630613141
0.5794409125320878
-0.01598313372191989
-0.5451949283981725
-0.3281571886504883
-0.4561900903039753
-0.11366978769804711
-0.2431205320393639
-0.48717049115259875
-0.16853586795273665
-0.23307610131533207
0.20474314259496362
0.3673060584485091
0.09150527501416547
0.012857181505122873
0.0033548210287780906
0.0006341553509755879
0.013369882548789545
0.05038438199720279
0.05565641085627321
0.009990723834631848
-0.14633996336318922
-0.4290465234104234
-0.12590872718715979
-0.006544215542141374
0.37446363069602756
-0.08303976015246264
-0.1313956819303495
0.720492891285398
0.511841799653262
-0.2562983563729633
-0.6487003077886929
-0.4670505533694348
-0.2203454006084781
-0.16835965946851242
-0.1524480221559787
-0.25612083779698
-0.08267571452387451
0.19156882344282977
0.3414838608651871
0.26628132407536304
0.06800149661832762
0.04448794412594854
0.00247758453425955
-0.003576849131268861
0.009713087244745105
0.04017233560030978
0.2169009187919752
0.15505913226487889
0.06792519662888179
-0.1241536021515716
0.17981732247477333
-0.037362133500592115
0.10039066410869607
-0.04012202828704616
0.4488542641398146
1.0334209156167613
0.15153105162558667
-0.5734247553255298
-0.8053032073746488
-0.29818733016131516
0.09411293146638658
0.11883390267310372
0.4414346025221091
0.327483494987354
0.22993858831362202
0.32595907134738944
0.29456259940072793
0.15699986889791917
0.025190423217045767
0.012468759400986072
0.013245763329492384
0.013947121824283551
-0.0061517510047155
0.020244908852426385
0.25834072867705193
0.26406020587349
0.15075043182358397
0.12870348865652334
0.17044983470658706
0.031660535827074864
0.4225552098714299
0.4516218133667085
0.6745072384822142
0.8064705280383463
0.06546509390468548
-0.6452147755173122
0.028877969857754607
0.1852633325441443
-0.17715361343442515
0.07501940825909421
-0.061098113570500164
0.09580740737242352
0.14184580547593223
0.38209276250393864
0.37795315231016163
0.14256115090833635
0.038831641200814504
0.01794879755988625
-0.0003652277622543717
0.0030743044892797052
-0.005352675119791745
0.006059434631133475
0.2217841472168112
0.03350862407933899
0.15084859528725497
0.02796309123085987
-0.011985694850175692
0.09797459375800727
0.2189935120602378
0.29907444802629757
0.11975576727698439
0.25862190494035014
0.03240850362290751
-0.4628436527277898
-0.4658756337919237
-0.12529940780809953
0.07300019592715357
0.25680116252003116
-0.29468510855843844
0.11811792004377669
0.16004145702068584
0.3947280385857891
0.21927007234350157
0.004244254335378991
0.014404446409300031
0.006975516318796795
-0.0003649862061081363
-0.0036535916850279865
0.003222187980494138
0.003901061107661438
0.23185942150856995
0.16173814789012228
0.08497112406276103
0.20084601773460753
0.33310247019561223
0.4292845674759203
0.5888041328606538
0.49005331303137495
0.3896605621664099
0.0921351107507952
0.014889741444915927
-0.4596504210557419
-0.30570717901772854
-0.3773089560300597
-0.3507237916425495
0.05039708902391883
0.04715512448339247
0.3206173227414756
0.17047993107524673
0.2678402744577896
0.20340144599264492
-0.16619602788316817
-0.10026697203166762
-0.00842360753141648
-0.009144439972383319
-5.693019499938711e-05
0.011054176719814311
0.043358167299573785
0.1303180139693864
0.15754662045176068
0.14189069425466438
0.23457730853794403
0.5994218873410924
0.35495272630663594
0.08491073826792632
0.23360905018272846
-0.009485503895527162
-0.19360851278756278
-0.05068520937905234
-0.2499624867782901
-0.1574519703028956
-0.3229942697476111
-0.27306502903186647
-0.08177319911679652
0.18968663302671712
-0.029752071488485403
-0.000906757601982632
0.17472079297221182
0.09274864968349701
-0.18965920953590892
-0.14172216327346523
0.02194114686184081
0.0050392543155264695
-0.007130703245121722
-0.006144971053148961
0.013334109766448358
0.016437666675781427
0.0590746967909075
0.2816784497342002
0.29134794144849563
0.322664424824968
-0.08597876927100742
-0.16479651131736597
-0.02775938896660894
0.19657175135286178
0.36568497725740284
0.3915956265962039
-0.15070890539368706
-0.09391844007236222
-0.09664018358012319
-0.0807194406839304
-0.035509430415817236
0.07366505183920524
-0.11209809822021505
0.2465374199113399
0.11558732966944482
-0.05557180706894686
-0.1224867329663271
-0.10177338891666421
-0.008721645356006653
-0.006713132435901905
0.0021734198719806233
-0.010543700049218216
0.06703292745595696
0.05233637975946961
0.1817146176214719
0.4683480953040672
0.44641800920563
0.002914653088382252
0.11299603319965214
0.15355392731923045
0.12518897716561045
0.38560577179357275
0.1909013757995589
0.18253253179148418
0.2101143281157521
0.17339050423025562
0.05948724175548509
-0.05095361559494153
0.02698887862067303
-0.04220007808097701
-0.012873748038760072
0.037407037008784234
-0.02681126622700272
-0.01199272743224599
0.01750810199067078
-0.024068443931541963
0.0072772788312625795
0.0035439517911153373
-0.0027901326516627726
0.0003675248615979396
0.047544169908905115
0.055708485541750154
0.2171650886529736
0.34210037320786174
0.35561482121358806
0.15595637863158962
-0.024907284716899597
-0.10876461998602276
-0.004182180870584696
-0.05135961841469365
0.22899122860919235
0.3516676201340393
0.39968415061325835
0.18129419608049752
0.16364553566245313
0.04531100980570952
-0.26203290236151966
-0.2222708282877734
-0.2784388842580551
-0.11687867725412704
-0.08215721279036549
-0.004017093586513868
0.07063562368754438
0.0050642971277272105
0.003083417310775254
-0.002284930282207131
0.0023916054933096607
0.0032310170722465617
0.013255463470736716
0.010395894111955259
0.0769112001264535
0.1362178463638581
0.08299904082195289
0.12296578984281151
0.20841016952102193
0.17043768145273872
0.4276847761896474
0.1373555908682564
0.025463845604724682
0.009951320246433087
-0.37554238861076167
0.018555358407796978
0.015874411754040897
-0.04714030692574689
-0.43194856488652916
-0.15099982484100563
-0.2907533048355845
-0.191175600142662
-0.026061788271179356
0.06961276862724392
0.06453846755976086
0.005986032490248225
-0.018165030574711527
-0.006997078164426761
0.002000695129431751
-0.000544235651699881
-0.003054840464700356
0.009251576674135321
-0.01698353904857511
-0.06726178126952359
-0.10958555886024161
-0.09394514664143576
-0.0483935105208719
-0.2274806383184478
-0.02022950648796271
0.09996944471325689
-0.010393986127088787
-0.2136607345154557
-0.3373447914082565
-0.2284818972493786
-0.14708519308369902
-0.07936380499361227
-0.06755735278034525
0.028347998715052614
-0.0896315382006881
-0.09187460686796563
-0.027172603828099356
-0.02113527946723026
0.0006845446144504231
-0.001320456421081241
0.01129560806478469
-0.0031385402016569706
0.008134358973559545
-0.007085225053657465
-0.00359308204698926
-0.008950443854899974
0.006057144701380906
0.0058544912827176885
0.004016165817147462
-0.02755221096869082
-0.02886655634040697
-0.0007975585201100397
-0.047145353622172814
-0.012319664714100939
-0.04580814619692371
-0.029436686964018043
-0.04890363298968473
-0.018920986390569237
-0.030062608752844635
-0.0235100040161848
-0.06915191909122179
-0.021462287442353463
-0.0234160147000499
-0.012350948899851808
-0.011142006141890693
0.002913904860103038
0.0049796539393497825
0.01397294671022594
-0.0031737270395818308
0.00196902980575527
